Twitter,-0.008100527338683605,0.004308608826249838,-0.005605657584965229,0.00741152185946703,0.0014531314373016357,0.0040261875838041306,-0.009407428093254566,0.008621163666248322,-0.0021067457273602486,-0.0020168691407889128,-0.0017564279260113835,0.007899325340986252,9.914624970406294E-4,0.007104302756488323,0.009645012207329273,0.0017702508484944701,0.004366344306617975,0.00945910532027483,0.008612866513431072,-0.007887529209256172,0.0057676672004163265,0.00355973606929183,0.0049389745108783245,0.005412291269749403,0.007961582392454147,-0.006953930947929621,-0.005493536125868559,-0.0017217647982761264,-0.005292999092489481,7.250309135997668E-5,0.002936416771262884,6.756997318007052E-4,-0.004649822134524584,0.006557021290063858,-4.897534745396115E-5,0.007836814038455486,-0.007400233764201403,-0.0019898407626897097,-0.00695858895778656,-0.009250790812075138,0.006969881244003773,0.004521137569099665,0.005483591463416815,0.005003087688237429,-0.006237344350665808,5.452549667097628E-4,0.009784374386072159,-3.0722259543836117E-4,-3.245157131459564E-4,-0.002691935980692506
Twitter,0.007010990288108587,-7.651365012861788E-4,0.008302543312311172,0.005907689221203327,0.00555654289200902,0.0010416376171633601,0.009390581399202347,-0.005615903064608574,-0.0034342342987656593,0.006193242035806179,-0.009643303230404854,9.115338325500488E-4,-0.0011625098995864391,0.00882334727793932,0.005930200684815645,-0.009760752320289612,-0.004934100899845362,0.008120324462652206,-0.0019717453978955746,0.009508168324828148,0.009082648903131485,0.008639080449938774,0.003378423396497965,0.0032892990857362747,2.3888825671747327E-4,-3.65794898243621E-4,0.009087072685360909,0.008466449566185474,-0.002952130977064371,0.006532044615596533,0.0016083979280665517,-6.293564802035689E-4,-0.001907584723085165,-0.008315380662679672,-0.00632921326905489,0.0029489779844880104,0.007470632903277874,0.008649345487356186,-0.0024210012052208185,-0.006928133778274059,-0.005884223617613316,-0.0024821257684379816,0.005006255116313696,-0.0025971007999032736,-0.0028143590316176414,-0.005558661185204983,0.0029177141841500998,-0.0076128835789859295,-0.00571249146014452,-0.0029078018851578236
Twitter,-0.00927712582051754,3.6749840364791453E-4,-0.0037124352529644966,0.003742307424545288,0.0014115762896835804,0.0037925613578408957,0.008148415014147758,0.0014381968649104238,-0.005542946979403496,-0.0018642735667526722,1.3691186723008286E-5,0.007645986042916775,0.009926419705152512,-8.355116588063538E-4,-7.760960143059492E-4,0.002550122793763876,-0.006768444087356329,-0.004096705932170153,-0.0069744479842484,-0.00935534480959177,0.005644513294100761,7.087290287017822E-4,-0.005137775093317032,-0.006354474928230047,0.007369989063590765,-0.007707744371145964,-0.006983323022723198,-0.009320193901658058,0.004092193674296141,-0.0017576402751728892,-1.6632795450277627E-4,-0.003669801400974393,-0.0028064793441444635,0.0052453516982495785,0.004083051811903715,0.008920575492084026,-0.00881567969918251,0.007535971235483885,2.2906303638592362E-4,-0.003996603656560183,0.00213685748167336,0.0021439397241920233,-0.009345187805593014,0.009468602016568184,-0.001270785927772522,0.0064280773513019085,0.004104346036911011,0.007513091433793306,-0.00745028629899025,0.0014480495592579246
Twitter,-0.006037095095962286,-0.004274091217666864,-0.003951477352529764,-0.007598469965159893,0.00998777151107788,-0.00150197627954185,2.3571372730657458E-4,-0.008459465578198433,-0.005208542570471764,0.006402366328984499,0.005593076813966036,0.0015999901806935668,-0.001871666288934648,0.009360283613204956,0.004121656529605389,0.0023211657535284758,-0.008875556290149689,0.007040681783109903,0.005429776851087809,-0.007732732221484184,0.0032473134342581034,-0.008533533662557602,-0.005952341482043266,0.007275903131812811,-0.0025926644448190928,-0.009272114373743534,0.0069982693530619144,0.0013040292542427778,0.008538538590073586,0.0057044909335672855,0.0053955852054059505,-0.0023276740685105324,-0.00108917651232332,0.005727164912968874,-0.003171379677951336,-0.0035572582855820656,0.002105796243995428,-0.005212822463363409,0.0011491584591567516,0.00827844813466072,0.004822226706892252,0.0037816583644598722,0.0015147507656365633,0.00352718704380095,-0.003442886983975768,-0.003905171062797308,0.008866502903401852,0.007857573218643665,0.006723846308887005,0.0059784185141325
Twitter,0.004659241531044245,0.006946256384253502,-0.005100582726299763,-0.002995923859998584,0.008697951212525368,0.004235540516674519,-0.0014450544258579612,-0.003310153493657708,-0.007770744152367115,0.007998768240213394,-0.004457610659301281,-6.573653081431985E-4,0.004679789766669273,0.007757512386888266,-0.006991681642830372,0.0013937795301899314,-0.00826303381472826,-0.0031629311852157116,0.00149092311039567,-0.0031475573778152466,-0.005538086872547865,0.00439723115414381,-0.009979664348065853,0.0021658791229128838,-1.360839669359848E-4,0.007532523944973946,0.006288392469286919,-0.0015784442657604814,0.006513744592666626,0.0024214505683630705,-0.008043006993830204,0.004847405944019556,-0.0014519024407491088,0.0023268305230885744,-0.00214358395896852,0.009030740708112717,0.002374195959419012,-0.007001582533121109,-0.005804178770631552,-0.009085824713110924,-0.002134226495400071,-0.007431221194565296,6.942856125533581E-4,-0.004305057693272829,-0.0030851394403725863,-0.006925398018211126,-0.006490966305136681,0.002087560947984457,-0.0040225256234407425,0.009033653885126114
Twitter,0.00784648023545742,0.008785895071923733,0.003650240832939744,-0.007931713946163654,-0.002309775445610285,0.0013883471256121993,-0.006348286755383015,-0.0012616610620170832,0.008898615837097168,0.009711822494864464,-0.001187270856462419,-0.0069209313951432705,-0.008586826734244823,0.0065946998074650764,-0.003372123232111335,0.003459920873865485,-0.009332401677966118,-0.008531199768185616,-0.004350438714027405,0.00519725913181901,0.006300615146756172,-0.007937710732221603,-0.009604076854884624,0.004734850954264402,0.008323218673467636,0.004427390173077583,0.0055491565726697445,0.0026194381061941385,0.00948867667466402,-0.0018671387806534767,-0.0058855521492660046,5.719089531339705E-4,7.074892637319863E-4,5.6224106810987E-4,-0.0010516607435420156,-6.138038588687778E-4,0.009418698959052563,0.0013907731045037508,-0.006700034253299236,-0.009990663267672062,-6.252360180951655E-4,-0.002104100538417697,-6.654757307842374E-4,1.352226681774482E-4,-0.0024244743399322033,0.008867678232491016,-0.00534457340836525,-0.009343991987407207,0.0013361084274947643,0.001814895891584456
Twitter,-0.002957399468868971,-0.0034460562746971846,-0.0038240861613303423,0.008738888427615166,-0.005704227834939957,-0.005512448493391275,-0.008204484358429909,-0.005053799133747816,0.002195497741922736,-0.004350383300334215,-0.009048673324286938,-0.0037062924820929766,-0.0044566560536623,0.0018759251106530428,0.0056245396845042706,-0.005129222758114338,-0.0037144667003303766,-0.005714309401810169,-0.007423434406518936,0.006530074868351221,-0.0036657960154116154,-0.0021574730053544044,0.0031176162883639336,-0.008890282362699509,0.008892739191651344,-0.003478989005088806,0.002225046046078205,0.005407731514424086,-0.005779235158115625,0.009494624100625515,-0.009371059946715832,0.0014507818268612027,0.008446671068668365,-0.002039422979578376,-6.9957016967237E-4,-0.009806543588638306,-0.006255519576370716,-0.002257331507280469,-0.004922082647681236,8.208394137909636E-5,0.00803341530263424,0.009829895570874214,-0.005202046595513821,-0.00990120880305767,0.005492817144840956,-0.006097124889492989,-0.006983139552175999,-0.004013260826468468,-0.002058480866253376,4.978108336217701E-4
Twitter,-0.0024563479237258434,-4.649162121950212E-8,0.00630474928766489,-0.0071621607057750225,0.006602163426578045,-0.005963425617665052,-0.0010337758576497436,-0.0051947166211903095,0.0018906008917838335,7.625317666679621E-4,0.003681706264615059,0.007012603338807821,-0.007986116223037243,-7.715362589806318E-4,-0.00588252441957593,-0.0033618640154600143,0.008461760357022285,-0.0011023443657904863,0.003708373289555311,0.005719785578548908,-0.009871520102024078,-3.9388716686517E-4,-0.004490905907005072,0.0019148659193888307,5.671882536262274E-4,0.0035000669304281473,0.008574350737035275,-0.0063909078016877174,0.0019439602037891746,-0.003097470384091139,-0.00124822196085006,-0.004095009993761778,-0.007461777422577143,-0.005616103298962116,0.006030402146279812,9.539949824102223E-4,0.005502929911017418,-0.004208051133900881,-0.009793053381145,0.009679981507360935,0.002221314935013652,0.008751412853598595,0.0016565429978072643,0.001334029482677579,0.0037909471429884434,-1.4652908430434763E-4,-0.005386136006563902,0.008704262785613537,0.003498438512906432,-0.007435981184244156
Twitter,0.002384730614721775,6.579530308954418E-4,-0.003117046318948269,-0.005554248578846455,-0.00909479707479477,-0.0054987771436572075,-7.673275540582836E-4,0.0037641895469278097,-0.0011034292401745915,-0.009486248716711998,-6.305814022198319E-4,0.0043560839258134365,-0.005651682149618864,-0.006235003471374512,0.0014265263453125954,3.365552402101457E-4,0.009534696117043495,-0.003593866713345051,0.0046908557415008545,0.006966502871364355,-0.0014908206649124622,-0.0027227371465414762,0.0014203893952071667,0.008943609893321991,0.002911806106567383,-0.0016342854360118508,0.004453575704246759,0.004945945926010609,0.006155765149742365,0.007940748706459999,0.004360382445156574,0.0028789497446268797,0.005650143604725599,0.0020945239812135696,9.564065840095282E-4,0.0056409225799143314,2.27630134759238E-5,-0.0044005983509123325,-0.006069417577236891,-0.0021026860922574997,-4.5229733223095536E-4,0.004052106291055679,0.0011651599779725075,-0.001586673897691071,-0.004239742644131184,0.004585023038089275,-0.0084113460034132,-0.005818371661007404,-0.006883400026708841,0.0038527739234268665
Twitter,-0.009234840050339699,-0.008572560735046864,-0.00947664212435484,0.00359617592766881,6.880712462589145E-4,-0.0068665361031889915,0.005052417516708374,0.008058663457632065,-0.003889563027769327,0.001238672761246562,0.005577058997005224,0.004836686886847019,0.006628355011343956,-0.007820037193596363,3.257560601923615E-4,0.005565210711210966,-0.001386655610986054,-0.005139291286468506,-0.007343121338635683,0.009099422954022884,-7.105887052603066E-4,-7.072091102600098E-5,-0.005145189352333546,0.005383404437452555,0.004996013827621937,0.0052273632027208805,0.003852580673992634,0.0011957144597545266,-7.06760270986706E-4,-0.008749322034418583,-0.007447912823408842,0.005810778122395277,0.006481536664068699,-0.005442562513053417,-0.004802514798939228,0.005860831588506699,-0.0019161170348525047,-0.006775577552616596,0.005272455047816038,-0.004493138752877712,0.0085865817964077,-0.006064714398235083,-0.006516098976135254,-0.0058972956612706184,-7.124042604118586E-4,-0.005269237793982029,-0.00904000923037529,6.398773402906954E-4,-4.794186388608068E-4,0.004208896309137344
Twitter,-0.007132004480808973,-0.007993565872311592,0.001639106310904026,0.0045925830490887165,-0.0063066198490560055,0.0061353277415037155,0.009085007943212986,-0.0040756152011454105,-0.006645092274993658,-0.006026469636708498,0.005786506924778223,0.0024729990400373936,-2.758473274298012E-4,0.009267075918614864,-0.007798368111252785,0.005014087073504925,-0.0013493996812030673,0.006192950066179037,0.0020001912489533424,-0.00502741290256381,-0.003052164800465107,0.006188281811773777,-0.0038124979473650455,0.006116621661931276,2.8657555230893195E-4,0.002166754100471735,0.0019085526000708342,-0.00561904301866889,0.003030083142220974,0.007626409642398357,0.006543380208313465,0.0036652707494795322,-9.342413977719843E-4,0.008934971876442432,0.0042306529358029366,0.007391220424324274,-0.005625492427498102,-7.414978463202715E-4,0.0011037635849788785,0.009644007310271263,0.0033354617189615965,-8.609867072664201E-4,-0.007983238436281681,-0.003099731169641018,-0.0029212289955466986,-0.00611049123108387,0.006178992800414562,0.002840322209522128,-0.004932147450745106,0.008874882012605667
Twitter,-0.008192306384444237,0.007794620934873819,-0.002608954906463623,0.009532528929412365,0.005797387566417456,0.0076500545255839825,-3.8016497273929417E-4,-0.002187187084928155,2.5712131173349917E-4,0.004040043335407972,0.0058616460300982,-0.0073773921467363834,-0.0033910006750375032,0.0017952251946553588,0.004035011399537325,0.0061352429911494255,-0.002274732105433941,0.006757671944797039,-0.007858732715249062,0.003124744864180684,-0.008157229982316494,0.0037627900019288063,0.00643189437687397,0.0019863618072122335,0.008841638453304768,-0.008451088331639767,-0.0020488768350332975,0.006010837387293577,-0.006748555693775415,0.0046707321889698505,-0.0016228413442149758,0.0014591121580451727,-0.0036107099149376154,-0.00905316136777401,0.0032146144658327103,0.009696656838059425,-0.0046398029662668705,-0.0033381676767021418,0.005570980254560709,0.0036828613374382257,-0.006368335336446762,0.005378383211791515,0.003191499738022685,0.00872184056788683,-0.002457420341670513,-0.008844291791319847,0.007208890747278929,0.0016654658829793334,0.007296824362128973,0.008667068555951118
Twitter,9.7621203167364E-4,-3.2842575456015766E-4,-0.00811032485216856,0.004232513718307018,-0.0013756490079686046,0.002251231577247381,-0.00435859989374876,-0.006172112189233303,0.006802579388022423,0.004090597853064537,-0.008939229883253574,-0.004042963497340679,-0.008223357610404491,0.00661608437076211,0.006305407267063856,-1.390004181303084E-4,-0.0038269490469247103,-0.0032837027683854103,0.002970576286315918,-0.004235166124999523,-0.007415149360895157,0.006554774008691311,0.002946701133623719,0.002357801189646125,-0.006253141909837723,0.005694469437003136,-0.002397194504737854,0.009143967181444168,0.003348478116095066,-0.0056618331000208855,-0.002458183793351054,0.008502084761857986,0.001082940143533051,-0.008619274944067001,0.004518008325248957,-0.0017314994474872947,7.439494365826249E-4,-0.007898583076894283,0.008028149604797363,-0.004524837248027325,0.002156404312700033,0.003823169507086277,-0.009531503543257713,-0.009473001584410667,-0.0058722589164972305,-0.002252592472359538,0.005559844896197319,0.009986226446926594,0.006581839174032211,-8.547961479052901E-4
Twitter,0.008288652636110783,-0.008848999626934528,-0.002134273760020733,-0.00855637900531292,-0.0013286221073940396,0.008592086844146252,-0.0020387584809213877,0.007065913639962673,0.0017403924139216542,0.00433635339140892,0.0029733050614595413,-0.001727608498185873,0.007682346273213625,-0.008522098883986473,0.005026154685765505,0.004094486124813557,-0.008177096024155617,-0.002952098147943616,-0.00971710029989481,-4.761511227115989E-4,-0.0032298618461936712,3.662800882011652E-4,0.007760155014693737,0.005169448908418417,-0.008920380845665932,0.002571303863078356,0.0010823452612385154,-0.006933193188160658,-0.0026991802733391523,-0.009008089080452919,-0.008925857953727245,0.006125322543084621,0.008947772905230522,0.0019403314217925072,0.004091911483556032,-0.0013524091336876154,0.004033465404063463,-0.007318550255149603,0.001868363586254418,-0.008370299823582172,-6.177425384521484E-4,-2.7183591737411916E-4,0.006997696124017239,-0.007823793217539787,-0.0017007124843075871,0.00756058469414711,-0.0022414266131818295,0.008361347019672394,0.0064732288010418415,0.004162388853728771
Twitter,0.0035226810723543167,0.007545439060777426,-0.004200509749352932,-0.002712438115850091,-0.0070947702042758465,0.0075747547671198845,-0.008028370328247547,-0.0069245100021362305,-0.006212874781340361,0.0023175703827291727,-0.0014630621299147606,-0.007892253808677197,-0.0063852970488369465,-0.009235925041139126,-0.007706248201429844,-0.0017820709617808461,0.006310620345175266,-4.110145673621446E-4,0.005483838263899088,-0.008475941605865955,0.005701556336134672,0.0036765802651643753,-0.007722734939306974,3.516232827678323E-4,0.009134799242019653,0.008985929191112518,0.008274424821138382,-0.0035342974588274956,-0.009611675515770912,-0.0028535169549286366,0.002691146219149232,5.44397858902812E-4,-1.2236356269568205E-4,0.006192551925778389,-0.006465164478868246,0.007613292895257473,9.835755918174982E-4,0.005075292661786079,-0.008318287320435047,0.008930300362408161,0.00924170482903719,-0.0037656414788216352,-0.002197575056925416,-0.006132364273071289,-0.002736954018473625,-0.008015978150069714,0.007555803284049034,0.0030152369290590286,7.766222697682679E-4,-0.006044306792318821
Twitter,0.007443996611982584,0.008803434669971466,0.0060942149721086025,0.0034959805198013783,-0.006761964410543442,-0.0020200556609779596,0.004750056192278862,-0.002176961861550808,0.006319156847894192,0.009907296858727932,-0.004426401108503342,0.0046048653312027454,0.007486262358725071,-0.006575352977961302,-0.004388336557894945,-0.00555435661226511,0.009846676141023636,0.0034467768855392933,0.004451689776033163,-0.002256564563140273,-0.009773872792720795,-0.009523339569568634,-0.008681561797857285,0.002602032385766506,-0.004913157783448696,-0.0032499509397894144,-0.009530366398394108,0.006299474276602268,9.685539989732206E-4,-0.005572156980633736,0.0037837219424545765,0.005538543686270714,-0.006116189993917942,0.00877782329916954,0.0010952460579574108,-0.0036539477296173573,-0.007901561446487904,0.001449992647394538,-0.009660494513809681,-0.009649519808590412,-0.005797356367111206,6.318020750768483E-4,-0.0025994235184043646,0.003186550224199891,-0.008019539527595043,-0.003151924116536975,0.0013673997018486261,0.0017190480139106512,-0.0025773728266358376,0.00863219890743494
Twitter,-0.003413485363125801,-0.005287411157041788,0.007657351437956095,-0.0014455694472417235,-0.008715973235666752,0.007515593897551298,0.005019485950469971,0.005623173899948597,-6.848067278042436E-4,0.00876521598547697,0.0029659199062734842,0.006722216494381428,0.0065599954687058926,-9.14083095267415E-4,-0.0076089054346084595,-0.0027185739018023014,-8.461648249067366E-4,-0.0015248000854626298,-0.0027893816586583853,-0.003647353732958436,-0.008746027015149593,0.005676069296896458,-0.007841158658266068,-0.0067359684035182,-0.0035214133094996214,-0.0033898442052304745,-0.009458254091441631,0.00876986887305975,0.007535436190664768,-6.854015518911183E-4,0.0056794569827616215,-0.0010274916421622038,0.0019717132672667503,0.007223720662295818,-0.0013765316689386964,0.006863931193947792,-0.005346348974853754,0.0024665845558047295,-0.004560055211186409,-0.001423404784873128,0.005651239305734634,-0.0034398615825921297,-0.006310927215963602,-0.007493206765502691,0.003538035089150071,-0.0022272879723459482,0.0021002625580877066,-0.007367743644863367,0.002380584366619587,-0.004838219378143549
Twitter,-0.005970747675746679,-4.983222461305559E-4,-0.0030249839182943106,0.009796836413443089,0.008506921119987965,-0.008973533287644386,-0.0034572905860841274,-0.0047689699567854404,0.008574448525905609,-0.002485414734110236,0.008697389625012875,0.0037552702706307173,-9.269356960430741E-4,-3.50475893355906E-4,-0.005607094615697861,-0.0027678085025399923,0.00505581870675087,-0.006557975895702839,-0.007419423665851355,-0.0028246045112609863,-6.983381463214755E-4,0.006999145727604628,0.005647381767630577,-0.0061204694211483,0.005362594034522772,0.007304059341549873,-0.005347707308828831,0.00727555388584733,0.00209349044598639,1.98699242901057E-4,-0.008929881267249584,-0.0021009654738008976,-0.005108760669827461,-7.99521803855896E-4,0.004305834881961346,0.008207890205085278,-0.004102517385035753,-0.0034839087165892124,0.003188778180629015,-0.008303053677082062,-0.008518168702721596,0.008267971687018871,-0.0031394618563354015,0.006250428967177868,-0.008207705803215504,-0.006897231563925743,-0.005123225040733814,0.008284064941108227,-0.008883262984454632,-2.265614311909303E-4
Twitter,-0.00856640562415123,-0.008963126689195633,-0.006473165936768055,-0.006099664140492678,-0.0022837298456579447,-0.0010465169325470924,8.888697484508157E-4,-0.004179615993052721,0.006705949082970619,-0.009159761480987072,-0.0035352660343050957,0.005529104266315699,-0.004077798221260309,-0.004927832633256912,-8.414703770540655E-4,-0.008900248445570469,-3.09340946841985E-4,0.007103929296135902,-0.0012334531638771296,-7.95398373156786E-4,-0.009298084303736687,-0.004790458828210831,0.008577054366469383,0.005179109517484903,0.007492829579859972,-5.600136355496943E-4,-0.004131124820560217,-5.732625722885132E-4,0.008637500926852226,-0.0033658593893051147,0.00391760328784585,-0.006822085473686457,0.0021510254591703415,-0.003987365867942572,0.004199789837002754,0.001956040970981121,-9.233838063664734E-4,-1.3018846402701456E-5,3.509771777316928E-4,7.105445838533342E-4,-0.001675573643296957,-0.00585433142259717,0.008449655957520008,-0.0029979872051626444,-0.0036827074363827705,-0.006272850092500448,1.1247635120525956E-4,3.3443092252127826E-4,-0.006361750420182943,-0.004290565382689238
Twitter,-0.008430239744484425,-0.00857033021748066,-0.008958718739449978,0.002576685044914484,-0.007858403027057648,-0.008092436008155346,0.008980975486338139,-0.004739814903587103,-0.001929613295942545,-0.0016170358285307884,0.0017725276993587613,-0.0035881197545677423,0.005175079219043255,0.007085557095706463,0.006884707137942314,-0.0033215880393981934,0.0074002123437821865,-0.0024755215272307396,0.0023275865241885185,-0.003629205748438835,0.0024309682194143534,0.004487112630158663,0.006924222689121962,-0.0031868063379079103,-0.0024554592091590166,0.006183664780110121,0.008312219753861427,0.004469218198210001,0.009522628970444202,-0.005985124036669731,0.009652453474700451,-0.007230688352137804,0.005809481255710125,-0.001293329638428986,-0.001722233253531158,-0.00942873302847147,0.007236763369292021,0.0077980137430131435,-0.0037067960947752,-0.005521703977137804,-0.00985949020832777,-0.0019519865745678544,-0.0038115971256047487,0.005087000317871571,-0.008098735474050045,0.006755653768777847,0.004051257390528917,-1.718258863547817E-4,-0.0072187138721346855,0.006977024022489786
Twitter,0.009047125466167927,-0.0013448446989059448,0.009893420152366161,-0.007409213576465845,0.009347403421998024,0.0014978874241933227,-9.636420290917158E-4,-0.009130595251917839,-6.870019715279341E-4,-0.008188215084373951,-0.009754257276654243,-0.0071229590103030205,-4.288494528736919E-4,0.00361065985634923,3.389430057723075E-4,-0.0023128073662519455,0.00761710898950696,0.0012904107570648193,-0.006928754039108753,0.00909934751689434,-0.008346053771674633,0.003267909400165081,-0.0030100566800683737,-0.0025401508901268244,0.0036168384831398726,0.007928340695798397,9.524631313979626E-4,-0.004504535347223282,-0.003081442089751363,0.004460157360881567,0.0051304735243320465,-0.00426387507468462,0.0039467038586735725,0.005445247981697321,-0.004138701129704714,0.004827072843909264,0.004375574644654989,0.00704424362629652,2.2220014943741262E-4,-0.0011737537570297718,-0.008410502225160599,0.009740537032485008,0.0025688933674246073,-0.003916229587048292,-0.002706002676859498,-0.0077720568515360355,0.002604930428788066,-0.005852974485605955,0.008712385781109333,0.009320510551333427
Twitter,-0.005085882730782032,0.0017772173741832376,-4.4282912858761847E-4,0.007054704241454601,-0.009295860305428505,0.007567954249680042,-0.0014121931744739413,0.007075993809849024,-0.003563643665984273,-0.0075885821133852005,-0.005873768124729395,-0.007518393453210592,9.193694568239152E-4,-0.007361004129052162,0.0020976292435079813,0.00430554011836648,0.009237203747034073,0.009759938344359398,-0.001898296526633203,0.008695963770151138,-1.767384965205565E-4,0.005684782285243273,-0.008420255035161972,-0.006845579016953707,0.007281220052391291,-0.002771787578240037,-0.002276840154081583,0.006557743530720472,-0.00888957642018795,-0.0036230217665433884,-0.003236553631722927,0.0021048628259450197,-9.868949418887496E-4,-9.762090630829334E-4,-0.0020037423819303513,0.007930484600365162,-0.0018470948562026024,0.009755799546837807,-0.0020068692974746227,-0.007578153628855944,0.004532370716333389,-0.004586292430758476,0.004106768406927586,-0.0011778664775192738,0.004357346333563328,0.004333012271672487,0.0020367682445794344,0.00869830697774887,-0.009509059600532055,-0.003746880916878581
Twitter,-0.008529470302164555,1.8980979803018272E-4,-0.00988234207034111,-0.005169283133000135,-0.0022660500835627317,-0.008580264635384083,-0.002670262474566698,-0.005118837580084801,0.002266354626044631,-0.00335449050180614,-0.006292263045907021,4.702532314695418E-4,-0.0021288972347974777,0.0032244252506643534,0.0032355953007936478,0.00786285474896431,-0.004995787516236305,0.008061337284743786,-0.009675653651356697,0.0040017045103013515,5.0459144404158E-4,-0.0064003984443843365,-0.003521043574437499,1.652085775276646E-4,-0.006565223913639784,0.009610604494810104,-0.003029482439160347,-0.009478440508246422,0.0019766390323638916,-0.0010383016197010875,0.004691301379352808,-0.0029565065633505583,-0.009508064016699791,-0.0036319983191788197,0.0064948308281600475,-0.001271952991373837,-0.0037997467443346977,0.006310914643108845,0.0028621696401387453,0.002121373312547803,5.166363553144038E-4,-0.007312951143831015,0.007693036925047636,-0.0023589099291712046,0.007254891563206911,0.0019122946541756392,0.0064309812150895596,0.0018546164501458406,-0.003016107715666294,-0.0015672189183533192
Twitter,-0.005743886344134808,0.008554774336516857,0.0028957391623407602,0.006562863476574421,0.008555607870221138,0.001050705905072391,0.004852094687521458,0.003244987688958645,0.009400319308042526,-0.0010825651697814465,-0.00922540295869112,-0.002260519890114665,0.0015211141435429454,0.0063817729242146015,0.007866406813263893,0.00481785275042057,-0.0025931692216545343,0.007047932129353285,5.853783804923296E-4,-0.0012561035109683871,8.599639113526791E-5,0.006202719174325466,-0.004315040074288845,-0.003871625056490302,0.004568028263747692,-0.003640356007963419,0.006460065953433514,0.003943252377212048,-0.004479550290852785,4.700040735770017E-4,-6.721282261423767E-4,-0.003927162848412991,0.0027559984009712934,-0.00589752197265625,0.005459505133330822,0.005421348847448826,-0.0025028276722878218,-0.0015142196789383888,-0.007913783192634583,0.001217505894601345,8.58442799653858E-4,-0.003777287667617202,0.001824001083150506,0.004490761552006006,-0.008239463903009892,-0.004424110054969788,0.008865765295922756,-0.004262176342308521,0.0022643946576863527,0.002566698705777526
Twitter,0.0016557585913687944,0.0033542453311383724,0.004663038067519665,-0.008093602955341339,0.008182784542441368,-0.005136099644005299,0.009731370024383068,0.0029623103328049183,-0.005317207425832748,-0.0014353222213685513,0.008777869865298271,-9.568118839524686E-4,0.005836968310177326,0.007071508094668388,-0.006157798692584038,-0.005937166046351194,0.0070427181199193,-0.001728601404465735,0.005894477479159832,-0.004924842622131109,-0.0035842787474393845,0.00693549495190382,0.00980404019355774,0.003370884573087096,0.009227187372744083,-0.009591171517968178,0.0030262195505201817,0.008449121378362179,1.3889670663047582E-4,0.006118664517998695,0.0061817895621061325,-0.0020596301183104515,0.006296384148299694,-0.006925096735358238,1.786541979527101E-4,0.003097596112638712,0.0028379701543599367,0.006077589001506567,-0.006590072996914387,-0.005213451571762562,-3.765022847801447E-4,0.0076573919504880905,-6.108218221925199E-4,-0.003921134397387505,0.008388460613787174,-0.005642259027808905,0.0037943613715469837,-0.0061383736319839954,0.004645154345780611,-0.00847871694713831
Twitter,-5.582100129686296E-4,-0.0025243766140192747,-0.005391577258706093,-0.005597847513854504,-0.007288509514182806,-0.002047300338745117,0.008466565981507301,0.0018841219134628773,0.005306682549417019,0.009795908816158772,0.004054249729961157,0.0024651754647493362,-0.007745482958853245,0.0027244496159255505,2.869415329769254E-4,0.009035780094563961,-0.005964257754385471,-0.0019239479443058372,-0.008988416753709316,-0.0056565250270068645,0.007803953718394041,-0.008699383586645126,-0.0035245437175035477,0.009312481619417667,0.0030178558081388474,0.004867762327194214,0.0019851005636155605,0.009991121478378773,2.0671010133810341E-4,-0.0024900375865399837,-0.008296904154121876,-0.003638660302385688,-0.0010804837802425027,-0.001965342788025737,-0.00941085908561945,0.00417490117251873,0.009023354388773441,0.006445796694606543,0.002550099976360798,-0.00877595879137516,0.008865897543728352,-0.0028258669190108776,2.4271012080134824E-6,-0.006533331703394651,0.002691900823265314,0.007007168605923653,-9.78100928477943E-4,0.009965424425899982,-0.0016946214018389583,-0.0075245327316224575
Twitter,-0.0025704591535031796,0.007544950116425753,0.006488252896815538,-0.0062862359918653965,-0.006393509451299906,-0.0018058371497318149,0.004679483361542225,-8.954238728620112E-4,-0.0015394955407828093,0.005340016912668943,0.007669240236282349,0.0012667954433709383,-0.0011054015485569835,0.003720157081261277,-0.003284086473286152,0.006624402943998575,-7.574582123197615E-4,0.006887388415634632,0.0039607323706150055,-4.7328590881079435E-4,-8.912330958992243E-4,0.009135555475950241,-0.0075921183452010155,-0.00455492502078414,0.008106384426355362,0.0042848349548876286,-2.0366907119750977E-4,0.0018922019517049193,-0.0034943921491503716,-7.303070742636919E-4,-0.009232151322066784,-0.00963597185909748,-0.006350500509142876,-0.003858237760141492,-0.00893334113061428,-0.0016843884950503707,0.001924161915667355,0.00567697174847126,-0.007360156159847975,0.009123899973928928,-0.00303132482804358,-0.009782716631889343,-0.008696467615664005,-0.0018615591106936336,-0.0012155509321019053,0.0015697800554335117,0.0092835808172822,-0.0030140518210828304,-3.389239282114431E-5,0.007885316386818886
Twitter,0.003813772229477763,-0.008351669646799564,0.004846668336540461,-0.005069124046713114,-0.007750694174319506,-0.00571540929377079,0.007047906052321196,-0.006367465481162071,0.004434400703758001,5.134618259035051E-4,-0.006218941882252693,-0.008180932141840458,-0.006246709730476141,-0.006754690315574408,0.0045233964920043945,0.008757549338042736,0.002877312945201993,0.008509197272360325,-0.006631544325500727,-0.008228854276239872,6.477510905824602E-4,0.008076181635260582,0.006472242064774036,-0.004591045901179314,0.007576862350106239,0.0061019835993647575,3.349912294652313E-4,0.008316605351865292,-0.009727449156343937,0.005763020366430283,0.007801454048603773,0.0019675851799547672,-0.007569692097604275,-0.0023448485881090164,0.003303387202322483,0.002302885055541992,-0.007540358230471611,0.0051878332160413265,0.00810309499502182,-5.720746703445911E-4,-0.002725008176639676,2.7583481278270483E-4,-0.006776765454560518,-2.854389022104442E-4,-0.005997953470796347,-0.0014015281340107322,0.004989934153854847,0.0012524998746812344,0.008236792869865894,-0.006019700784236193
Twitter,0.007687813136726618,0.004523427691310644,0.004367083311080933,0.004994114860892296,-0.006372039206326008,-0.005993902683258057,0.005576113238930702,-0.009110829792916775,-0.008184629492461681,0.0015246820403262973,-0.002292380901053548,-0.00980458315461874,-0.0025747548788785934,-0.0016595274209976196,0.0010052525904029608,-0.0010889697587117553,-0.003899077884852886,-0.006949727423489094,0.0045626284554600716,0.005666539538651705,-0.00610780855640769,0.005048657767474651,0.007550486363470554,0.004130188375711441,0.009730389341711998,-0.0010655128862708807,0.009339053183794022,-0.006220345385372639,0.0021831465419381857,0.007537255063652992,-0.001233968185260892,-0.001692851190455258,-0.00559814041480422,0.004187986720353365,0.0031643437687307596,-0.005599329248070717,0.0023974336218088865,0.0010930311400443316,-0.00470246747136116,-0.006999090313911438,1.3849973038304597E-4,-0.007010145112872124,0.0036877943202853203,-0.0025981462094932795,-2.142506855307147E-4,0.008617542684078217,-0.006675322074443102,-0.009654741734266281,-0.007818320766091347,0.007591079454869032
Twitter,-9.62036254350096E-4,0.004141626413911581,-0.003927481360733509,0.007648737635463476,-0.008820952847599983,0.009705765172839165,-8.946359157562256E-4,0.008057035505771637,-0.002207814482972026,0.0011549257906153798,-0.0016098773339763284,0.0011841320665553212,-5.438316147774458E-4,7.852411363273859E-4,-0.008366366848349571,-0.0036569368094205856,-0.002564685419201851,0.0018897450063377619,-0.006047783885151148,0.001911890460178256,0.0025693117640912533,-0.008728581480681896,0.006449599284678698,0.003143399953842163,-0.006084649357944727,0.008306226693093777,0.002601043088361621,0.002410914981737733,-0.006528882775455713,-0.002200468210503459,0.005319120828062296,-0.0036816310603171587,-2.714037873374764E-5,-0.00842605996876955,-0.008809938095510006,-0.002043986227363348,0.003530278103426099,0.0059697008691728115,0.008738025091588497,-7.384896161966026E-5,0.0058411527425050735,0.003946787212044001,-0.005242083687335253,0.00932244397699833,-0.0035948925651609898,0.004738627467304468,0.009791230782866478,-0.009300090372562408,0.004966325592249632,0.00781286135315895
Twitter,0.0070414175279438496,-0.008142293430864811,0.005731623154133558,-0.0065390910021960735,0.009056120179593563,0.0038915371987968683,-6.269991281442344E-4,0.004702302161604166,-0.0010374165140092373,-0.0064557697623968124,-0.007758820429444313,-0.002384870545938611,-0.0034185468684881926,0.009102092124521732,-1.4207244385033846E-4,-0.001190447248518467,-0.009035980328917503,0.005912816617637873,0.0031466353684663773,-0.00353765906766057,-0.007064200472086668,0.008695147931575775,0.009503107517957687,-0.0020473443437367678,-0.006948647554963827,1.6914606021600775E-5,0.004489639773964882,-0.0036770987790077925,3.917133726645261E-4,0.007786599453538656,0.002524140989407897,-0.0033895408269017935,-0.0019234776264056563,-0.004573166370391846,-0.009863653220236301,0.009823455475270748,-0.009415103122591972,-8.070349576883018E-5,0.0011195230763405561,1.7730474064592272E-4,-0.0033890933264046907,-0.009900894947350025,0.005154814571142197,0.006692409515380859,-0.008148770779371262,-0.001067858887836337,-0.003072604537010193,-0.007166924420744181,0.00801397766917944,-0.007223466411232948
Twitter,-0.0016562908422201872,-0.007818426936864853,0.00795712973922491,0.006566571071743965,-4.0306567098014057E-4,-0.004520423244684935,0.007899049669504166,-0.0070701963268220425,0.007085519842803478,-5.490791518241167E-4,0.0028215956408530474,0.005165521986782551,-0.003597861621528864,-0.009464886970818043,-0.0048009478487074375,0.001478569465689361,-0.0012406832538545132,0.006986490450799465,0.005702963098883629,0.0010880029294639826,0.004158271476626396,-0.006049915682524443,0.0036209546960890293,-0.002178243361413479,0.00896540004760027,-5.073928623460233E-4,-0.005790978670120239,1.3922691869083792E-4,0.008571960963308811,0.007371483836323023,-0.006116920616477728,-0.007706490810960531,0.008358907885849476,-0.003983324393630028,0.007748130708932877,0.006506562232971191,0.004790568258613348,-0.004372345749288797,-0.009914725087583065,-0.009186675772070885,0.007186945527791977,0.008016063831746578,0.0024799001403152943,0.007473662029951811,0.006363051012158394,0.0019338035490363836,0.006366448476910591,0.004144608974456787,-0.005103164818137884,-0.005456341430544853
Twitter,0.006873122416436672,-0.009742681868374348,0.005216163583099842,0.005109318532049656,0.0034875166602432728,0.009899446740746498,0.007322187535464764,-0.009286127984523773,-0.008229880593717098,0.002635242883116007,-0.00691491411998868,0.0014789748238399625,-0.007519881706684828,0.009851651266217232,-0.00833981018513441,0.008914853446185589,-0.006322554312646389,-0.0012819755356758833,0.0071003069169819355,0.00895809754729271,-0.0044477880001068115,0.0026659572031348944,-0.005404025316238403,-0.0045449514873325825,-0.008049648255109787,-1.6500949641340412E-5,0.006587592419236898,0.007959449663758278,-0.0020685417111963034,-0.005900071933865547,-4.449176776688546E-4,0.0031464837957173586,-0.00705692358314991,0.007553539238870144,0.007228540256619453,-0.002981418976560235,-0.00534890778362751,-0.009810973890125751,-0.006438165903091431,0.008519100025296211,-0.0036853356286883354,0.0035881339572370052,0.0038014710880815983,1.827561791287735E-4,-3.2422543154098094E-4,-0.0033770413137972355,-0.006962297949939966,0.006561776623129845,0.0025487637612968683,0.009050027467310429
Twitter,-0.00754666468128562,-0.009529889561235905,0.007424705196171999,0.0073890890926122665,-0.0076782661490142345,-5.042552857048577E-6,-0.006018870044499636,-0.00860590860247612,0.006774644833058119,0.009270399808883667,-0.005145896226167679,-0.006282523740082979,-0.005702627822756767,-0.0014991330681368709,-0.008530586026608944,-0.008974088355898857,-0.0032874816097319126,0.002014374826103449,0.00361749529838562,-0.002394201699644327,-0.0064120120368897915,-0.007822878658771515,-0.0053309784270823,-8.745252853259444E-5,-9.17866243980825E-4,0.009961304254829884,-0.0049894098192453384,-0.004161694552749395,0.005822332110255957,0.0028460132889449596,-0.002658142475411296,-0.008958605118095875,0.004367051180452108,-0.004902232903987169,-0.0019250732148066163,-7.671934436075389E-4,-0.0065798889845609665,0.00702292937785387,-0.005990930367261171,-0.0011009495938196778,0.005464998539537191,-0.00552329421043396,-0.004619846120476723,0.001087905140593648,0.007424379698932171,-0.005758882965892553,0.009369001723825932,0.0065293870866298676,0.007370785344392061,-0.002571100601926446
Twitter,0.0030730331782251596,-0.007528752088546753,0.0067206560634076595,0.007478318177163601,-0.009291838854551315,0.0031709896866232157,-0.009894019924104214,-0.0070126913487911224,0.009867372922599316,0.002932387636974454,-0.008608334697782993,-0.00852332916110754,-0.005795723292976618,0.005561454221606255,-1.8494664982426912E-4,0.0046202815137803555,0.005905947647988796,0.007414927706122398,-0.006373523268848658,-2.891850599553436E-4,-0.00834635179489851,-0.004479433409869671,-0.004874640144407749,-0.005865116603672504,0.004629604984074831,0.002090135822072625,0.002834017388522625,0.0015046477783471346,0.0024214352015405893,-0.008269603364169598,-0.0012925582705065608,-0.0021275817416608334,0.006340139079838991,-0.004232828039675951,-2.0724355999846011E-4,-0.006970876362174749,0.004406770691275597,0.003958370536565781,5.64014888368547E-4,-6.706118583679199E-4,-0.0010683167492970824,0.00990281905978918,0.009734881110489368,-7.466477109119296E-4,-0.005266285501420498,-0.002486972138285637,0.005691529717296362,0.005184464622288942,0.0053610242903232574,0.009077842347323895
Twitter,0.003755173645913601,0.0040733423084020615,0.0027668094262480736,-0.004182623699307442,-0.005820928141474724,-0.005853039212524891,-0.0076023428700864315,-0.0032670795917510986,0.005362454801797867,0.006139491684734821,0.009767026640474796,-7.721722067799419E-5,0.00387644418515265,-0.002467810409143567,-0.00592136150225997,0.00636057136580348,0.00994658563286066,0.001887620659545064,-0.006315803620964289,0.0012074351543560624,0.008234228007495403,-5.828076391480863E-4,-0.0064635188318789005,-0.007463135756552219,-0.0020066481083631516,0.0025026046205312014,-0.0044842795468866825,0.004379853140562773,-0.009482571855187416,0.002661884995177388,-0.003698712680488825,0.002942800521850586,-0.0014291435945779085,0.0016145670088008046,0.002823079936206341,-0.0037236923817545176,0.0021428430918604136,-0.009540259838104248,-0.00687368493527174,0.004940167535096407,-0.009496145881712437,-0.006113163195550442,-0.006842960137873888,0.004605982452630997,0.004456232767552137,0.0037710058968514204,0.008855145424604416,-0.00501827709376812,0.002373510506004095,-0.0024796563666313887
Twitter,9.551727562211454E-4,-0.0034841466695070267,-0.006829903926700354,4.197967064101249E-4,0.001209070673212409,2.527236802052357E-7,3.215098404325545E-4,-0.004729370586574078,0.0018184316577389836,0.008578546345233917,0.009916536509990692,0.005761737935245037,0.001947227749042213,0.009214993566274643,-0.005561180878430605,0.007013367488980293,-0.009149166755378246,1.7319679318461567E-4,0.006310569122433662,0.009522302076220512,-0.004529427271336317,0.008591780439019203,-0.003995196893811226,0.0013490307610481977,0.0072316695004701614,-0.004263292998075485,-0.004876743536442518,-0.0018197876634076238,3.224670945201069E-4,-0.005804840475320816,0.003369257552549243,0.0031993496231734753,-0.001160411280579865,-0.00559249147772789,4.2004467104561627E-4,0.003461819840595126,0.009820396080613136,0.0027360618114471436,0.005804789252579212,6.55567622743547E-4,-0.002666658256202936,0.0018296123016625643,0.009023218415677547,0.008659571409225464,-0.004152655601501465,0.0028674472123384476,-0.008207120932638645,-2.7899921406060457E-4,-0.004586390219628811,-0.005101100075989962
Twitter,-0.008858757093548775,0.005311131477355957,0.001984611852094531,-0.0053332410752773285,0.0037485575303435326,-0.0047921072691679,-0.004186732694506645,0.005258440971374512,6.428182241506875E-4,-0.0016108608106151223,0.0064664254896342754,-0.008113168179988861,0.0014937949599698186,-7.542013918282464E-5,0.0023882067762315273,-1.2418150436133146E-4,-0.008187511935830116,-0.0017208378994837403,0.006209635641425848,-0.008583498187363148,-0.004056431818753481,-0.0014125716406852007,-0.0017280977917835116,6.31790142506361E-4,0.007549786474555731,0.005074807442724705,-0.004059263970702887,0.003397551830857992,-0.005462752655148506,0.009760928340256214,-0.006381400395184755,-0.009619275107979774,0.004220068454742432,-0.008770986460149288,0.0011957645183429122,-0.009296268224716187,0.005386050790548325,0.004501389339566231,0.00993791501969099,-0.009002141654491425,0.0056942664086818695,0.003328498685732484,-0.008848690427839756,0.004168243613094091,-0.004396464675664902,0.006589238531887531,0.009935217909514904,0.005111873149871826,6.701028323732316E-4,-0.009824560955166817
Twitter,0.0032161581330001354,-0.0046609072014689445,0.0021192252170294523,-0.0030863594729453325,-0.002380271442234516,-0.0037497663870453835,-0.004728213418275118,0.00829417072236538,0.005493274889886379,-0.001647274475544691,-0.007633944973349571,-0.0022429991513490677,-0.0021938139107078314,-0.007836147211492062,0.008048522286117077,-0.00968276709318161,-0.007621925324201584,6.812989595346153E-4,0.0018618142930790782,0.007229583337903023,0.0042231883853673935,0.005406135227531195,-0.0037316458765417337,0.001020460156723857,-0.009429468773305416,-0.009577803313732147,-0.00984410010278225,-0.0028469222597777843,-7.752454257570207E-4,0.006485238205641508,-2.7915596729144454E-4,0.004581692162901163,0.008059466257691383,-0.0027182530611753464,-4.5022545964457095E-4,-0.0015180772170424461,-0.008831611834466457,1.5819669351913035E-4,-0.009515120647847652,-0.0037926905788481236,-8.312922436743975E-4,-0.009213590994477272,-0.0045150574296712875,0.009692349471151829,0.004533590283244848,0.0019374466501176357,0.0036234771832823753,-0.003787747584283352,0.008114817552268505,0.004835175350308418
Twitter,0.0014921342954039574,2.45226634433493E-4,0.006050894036889076,0.0034936475567519665,0.0025783395394682884,0.005071761552244425,0.008923638612031937,0.0042165471240878105,0.006377836689352989,-0.008222036063671112,-0.00810639001429081,0.0029386545065790415,-0.00319139426574111,-0.0013886720407754183,-0.002921801758930087,0.004282547160983086,-4.936361219733953E-4,0.005906397011131048,0.001073532155714929,0.008118734695017338,5.86724272579886E-5,6.635606405325234E-4,0.0076576294377446175,-0.0021813702769577503,0.009752246551215649,-0.00687120296061039,0.0037238490767776966,-0.003388436511158943,-0.002083464292809367,0.009348953142762184,0.005120372865349054,-0.007220795378088951,-0.009013894945383072,-0.008898173458874226,-0.009774819947779179,-0.003875199006870389,-0.0040460629388689995,-0.002964005572721362,-0.0019553136080503464,-0.003865194972604513,-0.009945148602128029,5.550992209464312E-4,0.004147419705986977,0.008076673373579979,0.006382607389241457,-0.0011723542120307684,-0.009611307643353939,-0.0014971065102145076,0.008694339543581009,-0.008372261188924313
Twitter,-0.008806108497083187,-0.00585208460688591,2.627217909321189E-4,-0.00551844947040081,-0.006377869751304388,0.004178537055850029,-0.004764494486153126,-0.006877354346215725,-0.008782454766333103,-9.401607676409185E-4,-3.599697374738753E-4,0.00832378026098013,0.008950889110565186,0.004525871481746435,-0.004747891332954168,0.00603143684566021,0.004307623952627182,-5.556595278903842E-4,-0.007101496681571007,-0.008409223519265652,-0.0030097102280706167,0.004200981929898262,-0.005372927058488131,-0.004932890646159649,-0.004831292200833559,-0.002997944364324212,7.751333760097623E-4,7.139873341657221E-4,0.0033370673190802336,0.0010123634710907936,-0.00518603902310133,0.0026221764273941517,-0.004886353388428688,0.009217980317771435,-0.0018670260906219482,0.004810495302081108,-0.006219382397830486,0.006067953072488308,-0.0033393334597349167,-2.508735633455217E-4,0.005256940145045519,0.008344237692654133,-0.005153751466423273,0.00987645611166954,0.009666811674833298,0.00870659202337265,0.004929028917104006,-0.005225110799074173,0.0018148338422179222,-9.256667108274996E-4
Twitter,-0.007151229772716761,-0.0032718461006879807,9.091102983802557E-4,0.008375657722353935,1.7547368770465255E-4,0.005602742545306683,-0.006624334026128054,0.007308817934244871,-0.002911926480010152,0.00943824090063572,-0.009031299501657486,0.005864560604095459,0.006497398484498262,0.002942289225757122,-0.0012576740700751543,0.0067202746868133545,0.004146203864365816,-0.002686557127162814,0.002772982232272625,-3.97204770706594E-4,0.007958685047924519,-0.009490838274359703,-0.008539619855582714,0.005666319280862808,0.0015492415986955166,-0.00991297047585249,0.0040905773639678955,-0.0062344251200556755,0.0017411481821909547,0.0020741713233292103,0.007398351561278105,0.008524037897586823,0.004772597458213568,-0.004518096335232258,-0.00808812864124775,0.008643542416393757,-0.006742062512785196,-0.008200325071811676,0.004704492166638374,-0.008177941665053368,0.008474559523165226,-0.008225998841226101,-0.0041662524454295635,-0.0022617815993726254,0.0035611058119684458,0.00796642154455185,-0.008529659360647202,-0.007040224503725767,-0.006067408248782158,0.008313181810081005
Twitter,0.008947568014264107,0.0015218519838526845,-0.00465737096965313,-0.0018383306451141834,0.003754063742235303,-0.007891607470810413,0.007422641385346651,0.00579794030636549,-0.009506290778517723,-0.004014456644654274,0.008379194885492325,-0.002206993754953146,-0.0059254164807498455,-5.325847887434065E-4,-0.008948775939643383,0.006641337648034096,0.00977993942797184,0.0015561055624857545,-0.008900590240955353,0.001251639099791646,0.008806329220533371,-0.0013935250462964177,-0.005926983896642923,0.005956307519227266,-0.006606432143598795,-0.002631120616570115,0.005305998492985964,-0.00473133847117424,-0.002108105458319187,-0.003106168005615473,0.0015947759384289384,-0.009389921091496944,-0.009605472907423973,-0.008833285421133041,-0.006541137583553791,0.009942027740180492,0.0014403045643121004,-0.0019501722417771816,-0.004284703638404608,-9.855455718934536E-4,0.005013219080865383,0.007788385264575481,-0.003947868477553129,2.971851790789515E-4,-0.0022938454058021307,-0.0036446135491132736,-0.005432937294244766,0.009604551829397678,0.007883443497121334,0.0048389374278485775
Twitter,-0.0035252594389021397,-0.004223367664963007,-0.003935626242309809,0.003566584549844265,-9.926635539159179E-4,0.007413661573082209,0.005541237536817789,0.003120905254036188,-0.004077395889908075,-0.001956232823431492,-0.006061216816306114,0.0030411339830607176,-0.007154068909585476,0.007852268405258656,-0.005044972524046898,0.0011875939089804888,0.006782595068216324,-0.00686724903061986,-0.003914210945367813,-0.004343705717474222,-0.006730943452566862,-0.001197553239762783,-0.009884379804134369,-0.005800429731607437,-0.005269302055239677,0.004072362091392279,-3.243655082769692E-4,0.008091701194643974,0.006497898139059544,-6.312352488748729E-4,-0.0058857472613453865,0.005864456761628389,-0.003716594073921442,0.008643384091556072,-0.005338605493307114,0.0022628712467849255,-0.0012019037967547774,0.008347448892891407,2.5726438616402447E-4,0.005741727538406849,-0.008143696933984756,-0.006690262351185083,-0.0032047838903963566,0.0066436599008738995,-0.0013974750181660056,0.0011396371992304921,-0.0032329661771655083,0.00619535194709897,0.0052328407764434814,-0.0013148951111361384
Twitter,0.00498097762465477,-0.00840755831450224,0.003908710554242134,-0.0038902657106518745,-0.003522551618516445,0.0027932131197303534,-0.004927316214889288,0.008679959923028946,-0.001236861920915544,-0.0016003161435946822,4.100799742445815E-6,0.0029404580127447844,0.0020866822451353073,-0.0032500196248292923,0.0030877459794282913,5.574154783971608E-4,0.003543952712789178,-0.008301827125251293,-0.008926371112465858,-0.007361338008195162,0.009186306968331337,-0.0012672513257712126,-0.005139086861163378,-0.0013054293813183904,0.003825073130428791,0.00947777833789587,0.006986875552684069,-0.00198620674200356,5.842685932293534E-4,-5.325156380422413E-4,2.1881698921788484E-4,-0.0056047928519546986,0.006409334018826485,-0.006509026512503624,-0.0049808030016720295,-0.0026021343655884266,-0.00923608336597681,-0.0049089849926531315,-0.006272780708968639,0.0010936605976894498,-0.009560164995491505,0.006533759646117687,4.56552515970543E-4,0.0014817905612289906,-0.006100742612034082,0.006694147363305092,0.0077146864496171474,-0.00292790774255991,-0.0016732477815821767,-0.009416995570063591
Twitter,0.008955305442214012,4.3432472739368677E-4,-0.00821401085704565,-0.009765819646418095,-0.00500315660610795,-0.008691392838954926,-0.004323905799537897,-4.079580248799175E-4,-5.960023263469338E-4,-0.008222412317991257,-0.007952259853482246,-0.0057122898288071156,0.0022956980392336845,-0.0010833579581230879,0.005265072453767061,-0.006179385352879763,-6.489968509413302E-4,0.002343259984627366,0.0016161513049155474,0.008037861436605453,-5.463409470394254E-4,-0.0028075212612748146,-0.00420791981741786,0.009411048144102097,-0.005899203009903431,-0.0068314517848193645,0.009730848483741283,0.006752692628651857,-0.0013198625529184937,-0.0035815113224089146,0.00571628101170063,0.002667076652869582,-0.008458522148430347,0.008332774974405766,-8.625441696494818E-4,0.008896883577108383,-2.6385844103060663E-4,0.0018677592743188143,-0.0027363807894289494,-0.005009273067116737,0.004202870186418295,-0.009736200794577599,-0.0012815069640055299,0.006962070241570473,-0.005795718636363745,0.00649487366899848,-0.0069122640416026115,-0.0022897166199982166,-0.008429172448813915,-0.0035488379653543234
Twitter,0.007092833518981934,0.007310865912586451,0.007265441585332155,0.005601055454462767,-0.002600225154310465,0.006988588720560074,0.006281252019107342,-0.0017710846150293946,-0.007783789653331041,0.008957807905972004,-0.0016826784703880548,0.0035067724529653788,0.006180151831358671,0.0017089986940845847,0.007455970160663128,-0.004773057531565428,0.009100429713726044,-0.008456069976091385,0.0016214096685871482,9.270870941691101E-4,-0.009720955044031143,-0.0013436597073450685,0.0016719913110136986,0.005764137487858534,0.0022884858772158623,-9.774273494258523E-4,-0.0022293543443083763,0.009021531790494919,3.639173519331962E-4,-0.007542076520621777,-0.0035456186160445213,0.009244404733181,-0.003960045054554939,-0.00816372875124216,0.005173455458134413,-6.977677112445235E-4,-0.0010922366054728627,-7.162254769355059E-4,-0.007467746734619141,-0.002645233180373907,0.002909609116613865,0.008899198845028877,0.004774872213602066,0.009657945483922958,0.0014464902924373746,-0.0010936075123026967,8.573901723138988E-4,-0.005417954176664352,-0.0015138894086703658,-9.31738642975688E-4
Twitter,1.5053630340844393E-4,8.299291366711259E-4,-0.005772789940237999,-5.002051475457847E-4,0.008762696757912636,0.004871031269431114,0.008716094307601452,-0.00115628179628402,0.005163175985217094,0.00699295150116086,0.007328778505325317,0.0022425090428441763,0.006225699093192816,0.008083481341600418,0.009727012366056442,0.004753300920128822,-1.0004281648434699E-4,0.008976660668849945,0.00746303191408515,-0.003983442671597004,-0.0016000253381207585,0.008955525234341621,0.004553878214210272,0.009704377502202988,0.0054573784582316875,1.1512398486956954E-4,0.003630340099334717,0.009588255546987057,0.008188239298760891,-0.0022958654444664717,0.008457127027213573,-0.00660879909992218,0.006526387762278318,-0.0035441212821751833,0.00732983835041523,0.0063461922109127045,0.00845744926482439,0.0075143612921237946,0.008691728115081787,0.0047745476476848125,0.005838376469910145,0.009285693056881428,-0.004592184908688068,0.006430270615965128,0.0076873088255524635,-0.0029925238341093063,0.007334009278565645,0.00746091129258275,0.006297594401985407,0.008673752658069134
Twitter,-0.008642548695206642,-0.006878873333334923,0.008255940861999989,-0.008932957425713539,-0.007983224466443062,-0.007362842559814453,-0.002195057226344943,0.009897027164697647,0.0048161959275603294,0.007743556518107653,-9.233653545379639E-4,-0.005300682969391346,0.0010521495714783669,0.009151285514235497,-0.0046132816933095455,0.009291074238717556,0.009030443616211414,-0.005034657660871744,0.007720170076936483,0.003888451959937811,0.0064152441918849945,0.002200782299041748,0.004697633907198906,-0.005838066339492798,-0.009564300067722797,0.006777247413992882,0.008289957419037819,-6.800663541071117E-4,0.004576805979013443,0.006534458603709936,-0.005247762426733971,0.0011925494764000177,0.0035903393290936947,0.004503224976360798,2.2190093295648694E-4,3.2282352913171053E-4,-0.009032299742102623,-0.005599926225841045,0.0016665542498230934,-4.1374565626028925E-5,3.8578271050937474E-4,0.00860549695789814,0.002564213238656521,-0.007804129738360643,0.004582489840686321,0.0020613395608961582,-0.004206812009215355,-0.0023665623739361763,-0.0036888355389237404,4.449653497431427E-4
Twitter,0.00429923040792346,0.004802895709872246,-0.0013575577177107334,0.007564836647361517,0.0074986922554671764,-1.264011807506904E-4,-0.009208451956510544,0.008983932435512543,0.006548222154378891,0.006722996011376381,-0.0025395078118890524,0.009780112653970718,0.006263290531933308,-0.004957366734743118,0.0014341926435008645,0.008153083734214306,0.003108183154836297,0.0019888770766556263,0.004296279978007078,-0.00453157490119338,-0.0013924569357186556,-0.0017796802567318082,-0.0012422698782756925,-0.003456863109022379,-0.0031405396293848753,0.004830427002161741,-0.005152757279574871,0.005548788234591484,-0.0015892214141786098,-0.009742222726345062,-9.061247110366821E-4,0.006348879542201757,0.004322858992964029,0.0010353695834055543,-0.009116551838815212,-0.008898433297872543,-0.007704439107328653,-0.002297322265803814,-0.005013458896428347,0.006717726122587919,-0.002758010057732463,-0.008919615298509598,9.478962165303528E-4,0.0012706613633781672,-4.671120550483465E-4,0.005400228314101696,-0.0022779637947678566,-0.004681590013206005,0.00950352568179369,0.00847353134304285
Twitter,-0.007523295935243368,0.006988003384321928,0.008955869823694229,-0.008788708597421646,-4.3206632835790515E-4,-0.006122531834989786,1.979935186682269E-4,-0.0012876034015789628,0.003515261458232999,-0.008744027465581894,-0.006647731177508831,-0.006720150820910931,-0.003085293108597398,-0.0019801778253167868,-1.0369658411946148E-4,-0.0021148710511624813,0.006741693243384361,-0.009822465479373932,-0.004655712749809027,-0.0031294506043195724,-7.938980706967413E-5,0.0056317029520869255,-0.00564144691452384,0.0060074045322835445,6.805706070736051E-4,9.317707736045122E-4,-0.005850509274750948,-0.0073386733420193195,5.330407875590026E-4,0.009798454120755196,0.007980737835168839,0.006485099904239178,-0.008469048887491226,-0.005577328149229288,-0.005946630612015724,0.008821832947432995,-0.004885593429207802,0.006554552353918552,-0.006177306175231934,0.0014189541107043624,7.047331309877336E-4,0.0072541250847280025,0.003098014509305358,-7.674098014831543E-5,0.0013776635751128197,0.0032969380263239145,-0.009330610744655132,0.0032952690962702036,0.0028852152172476053,-0.003083693329244852
Twitter,0.0044490015134215355,0.005502162966877222,0.004558893386274576,-0.009551363065838814,-0.0011663788463920355,8.614981197752059E-4,0.007228067144751549,-0.006399665027856827,-2.942556166090071E-4,0.0030390084721148014,0.008463067002594471,-0.004633699078112841,-0.001655589323490858,-0.003570991102606058,0.00971956830471754,0.006943688262254,0.005509702954441309,0.00944543443620205,0.005088552366942167,0.003273518057540059,-0.0021283114328980446,0.009708556346595287,0.009700826369225979,0.006306083407253027,0.0013166331918910146,-0.008169864304363728,0.007919110357761383,-0.007730821147561073,-0.0048960186541080475,0.001348042511381209,0.005870368331670761,-0.008640729822218418,-0.009123935364186764,-0.004426440689712763,-0.008785677142441273,-0.004917162004858255,0.007395273540169001,0.00927321333438158,0.006749370135366917,-0.007761724758893251,0.0092556681483984,0.008332064375281334,-0.004270009230822325,0.007799594197422266,0.009161928668618202,0.004436875693500042,-0.008561750873923302,0.003585171652957797,-0.0015768737066537142,1.5650152636226267E-4
Twitter,-0.008483577519655228,-6.860953290015459E-4,0.0040410663932561874,-0.0028467506635934114,-0.001594077330082655,7.630086038261652E-4,-0.0074026500806212425,0.002150961197912693,0.0034635330084711313,-0.006638338789343834,0.004058420658111572,-0.0015178305329754949,0.009481820277869701,-0.004328445065766573,0.0014400732470676303,-0.003399109933525324,-0.004849454388022423,0.0069493139162659645,0.007867475971579552,-0.002051538322120905,-0.008951650001108646,0.008328964933753014,0.008470726199448109,-0.005351837258785963,0.004280522931367159,-0.0032917505595833063,0.008236738853156567,-0.006090207025408745,-8.247310179285705E-4,-0.003894926980137825,0.004270634613931179,-0.0032732635736465454,0.003777584992349148,-0.0033144683111459017,0.0037577569019049406,0.008837857283651829,0.0041432250291109085,0.004518991801887751,-0.0090566948056221,0.00644051656126976,0.0041479505598545074,-0.007872109301388264,7.658898830413818E-4,0.005135312210768461,0.007895568385720253,-0.004988779313862324,-0.0067179095931351185,-0.00639328733086586,0.003326619975268841,-9.227752452716231E-4
Twitter,0.009679028764367104,0.0052633462473750114,0.0029025112744420767,0.005543216597288847,0.008745189756155014,-0.006089423783123493,0.00725244777277112,-0.0014434296172112226,-0.007349506486207247,0.006706316489726305,0.0022766757756471634,0.005951906554400921,0.0011916935909539461,0.004441735800355673,0.006919579580426216,1.6853332635946572E-4,0.007957035675644875,-4.580110253300518E-4,6.418931297957897E-4,-0.007948682643473148,0.005181587766855955,0.003933899570256472,0.006253138650208712,-7.414150168187916E-4,0.0078028845600783825,0.005900927819311619,-0.00836122501641512,-0.004639333579689264,0.008088511414825916,2.2994638129603118E-4,0.0034316289238631725,0.009495040401816368,-0.0022371315862983465,0.0077139544300735,0.0048374212346971035,0.0040144468657672405,0.0030538737773895264,0.0018758618971332908,0.003471432952210307,-0.0045767538249492645,0.0026919497177004814,0.005052862223237753,-0.0019843517802655697,0.007142158690840006,-0.0032348250970244408,0.001522132195532322,0.006656312849372625,-5.73978410102427E-4,-0.0031383323948830366,0.009805405512452126
Twitter,0.0041964855045080185,0.002967693842947483,-0.0046812486834824085,-0.005644332151859999,-0.0028849958907812834,0.00866708904504776,-0.007617969531565905,2.0269156084395945E-4,-0.007046718616038561,-0.004427952226251364,0.008029889315366745,0.005071723368018866,0.009321075864136219,-2.711421111598611E-4,0.008169698528945446,0.002742745913565159,0.007202969864010811,-0.004013966768980026,0.005182225722819567,0.002934118499979377,-0.009623409248888493,0.00428037391975522,3.7090780097059906E-5,4.4315934064798057E-4,-0.0023951756302267313,-0.007013780064880848,0.0034931183326989412,-0.006392403971403837,-0.006138235330581665,0.0061393906362354755,0.008769585750997066,-0.009106470271945,0.006479308474808931,0.004222761373966932,0.00811516772955656,0.00808660313487053,-0.0013153451727703214,0.007431754842400551,-0.0061986614018678665,0.006221130955964327,-0.006242433562874794,-0.006470631342381239,0.009971109218895435,-0.007294290233403444,-0.006546837743371725,0.008722135797142982,0.008996468037366867,0.0022997271735221148,0.0032330621033906937,0.004315504804253578
Twitter,-0.0053106071427464485,-0.006514009088277817,-0.008433050476014614,0.004186452832072973,0.005885601043701172,-0.004503629636019468,0.005324566271156073,-0.0012590795522555709,-0.0020082516130059958,-0.0016268515028059483,0.00528982887044549,-0.009589343331754208,-0.00901959091424942,0.003783212974667549,0.0038415445014834404,-0.004260627087205648,-0.005456532351672649,0.007851333357393742,0.007993092760443687,0.002470041625201702,-8.638543076813221E-4,0.0025416254065930843,-0.009691904298961163,-0.008354798890650272,-0.008438711054623127,0.008393182419240475,0.007354277186095715,0.002882221946492791,0.00353240012191236,-0.0029791444540023804,0.009510627016425133,0.007964005693793297,-0.009211587719619274,0.009658664464950562,-0.006850606296211481,0.005566292908042669,0.0012595928274095058,-0.0013447111705318093,0.009858033619821072,-0.009566781111061573,-0.0013147902209311724,0.0056507159024477005,-0.006576235871762037,-0.003507534973323345,-0.003409156110137701,-0.008401640690863132,-0.006919326260685921,0.004176537971943617,-0.00660761259496212,0.006113870069384575
Twitter,0.005093136802315712,0.009836004115641117,-0.009015309624373913,0.001279079937376082,-9.839582489803433E-4,0.004797096364200115,0.008734544739127159,-0.001850264030508697,-6.294292397797108E-4,0.005445742513984442,0.009574303403496742,0.005041130818426609,0.003635228844359517,-4.1587292798794806E-4,-4.5958877308294177E-4,-0.009371179156005383,-0.00866759568452835,-0.005831729620695114,-0.0038291628006845713,-0.008728960528969765,0.004680836107581854,-0.006854822859168053,0.003503147279843688,0.009918910451233387,-0.009808804839849472,0.005029650870710611,-0.004081800114363432,0.002591886557638645,-0.006910541094839573,-0.003116282168775797,-0.008303096517920494,-0.0027626603841781616,-0.004365947097539902,-0.0011473000049591064,0.0070081246085464954,-0.008133488707244396,0.008826647885143757,-0.00602253433316946,-0.008769024163484573,-0.0015877926489338279,0.0017104721628129482,0.003282036865130067,-0.0034007763024419546,-0.003412835067138076,-0.00531798368319869,-0.007998005487024784,-0.0011776041937991977,-0.004518296103924513,0.0029147695749998093,0.006210389081388712
Twitter,0.00665339594706893,0.009711029939353466,0.002978445263579488,-0.005867585074156523,-0.004011654295027256,-0.005662110634148121,9.639346390031278E-4,0.0025565088726580143,-0.006267092190682888,-0.0076407273299992085,-0.0013554936740547419,3.176212194375694E-4,0.006957424804568291,0.0012485384941101074,0.004279196262359619,-0.009875175543129444,0.002556868828833103,-0.00766642764210701,0.005327862687408924,-0.0031708460301160812,-0.004634584300220013,0.009205272421240807,-0.004860029090195894,-0.007608724758028984,0.0015892363153398037,0.006453702226281166,-0.007082671392709017,-0.007899194024503231,0.0032421147916465998,-0.00558082340285182,0.006926460191607475,-0.00503402017056942,0.004266880918294191,-0.0024866152089089155,0.00686933659017086,-0.005117300897836685,-0.0041376096196472645,-0.0015364300925284624,-0.0022769516799598932,0.008832666091620922,-0.006303607020527124,0.007453440222889185,-0.002657389733940363,4.639828111976385E-4,-0.007666636724025011,0.005450708791613579,-0.0024313258472830057,0.003717476036399603,7.917010807432234E-4,-0.009118645451962948
Twitter,-0.002971203997731209,0.007951987907290459,0.0061102258041501045,0.00653745885938406,0.001335170236416161,0.004591635428369045,0.008116147480905056,-0.008054925128817558,0.0029412840958684683,-0.007896371185779572,-0.007239578291773796,0.006963412743061781,-0.006027374416589737,0.0030210495460778475,0.0010824335040524602,-0.003578593721613288,-0.0031477464362978935,-0.0037972605787217617,0.002494943095371127,-0.009783521294593811,-0.0029007799457758665,-0.008558045141398907,0.006180624943226576,0.005145296920090914,-0.0016342682065442204,-0.00415924983099103,0.0020268154330551624,0.004026046022772789,-0.009062475524842739,0.009481715969741344,0.009193379431962967,0.008739139884710312,-0.0062848664820194244,-0.003920576069504023,0.004294129554182291,0.008909502066671848,0.005795938894152641,-0.009563970379531384,-0.0069089625030756,0.002852907171472907,0.0038821506313979626,0.0054768286645412445,-0.0030381304677575827,-0.007196909282356501,-0.007006412837654352,-0.007091911043971777,0.008896833285689354,-0.009848355315625668,0.004026458133012056,0.006461750250309706
Twitter,-1.5792548947501928E-4,0.0030356908682733774,0.0069793034344911575,0.003246610052883625,-0.006617422215640545,0.0012197935720905662,0.009880057536065578,-7.850367110222578E-4,-0.003788026049733162,0.0013936448376625776,-0.003652718150988221,0.007547758985310793,-0.008925231173634529,0.004297484178096056,-0.0032659179996699095,-9.581452468410134E-4,-0.0012320226524025202,0.00899865385144949,0.001939326524734497,0.008644841611385345,0.009463722817599773,-0.0029706412460654974,-0.007119958288967609,-8.867061114870012E-4,-7.283151353476569E-5,0.005369056481868029,-0.001811761874705553,-0.008436765521764755,-0.00674460781738162,-0.009718655608594418,-0.003400081302970648,-0.003457440063357353,2.6503921253606677E-4,0.006696430500596762,-0.005490196868777275,-0.005506869405508041,-0.0015515893464908004,0.0038376462180167437,0.007733498699963093,4.582059336826205E-4,-0.004323495551943779,-0.0021482682786881924,-0.003806157037615776,0.0071542225778102875,-0.0049554454162716866,-0.0036019599065184593,9.549129172228277E-4,-0.00461881747469306,0.006676626391708851,-0.00609698286280036
Twitter,0.007998480461537838,0.006304568145424128,-8.627891656942666E-5,-0.0052949716337025166,-0.00238715298473835,-0.003179708030074835,0.009087316691875458,-0.005160204134881496,-0.0012815803056582808,-5.536520620808005E-4,-0.003268834901973605,-0.003967421129345894,-0.00359617592766881,-0.0030393553897738457,-0.009481190703809261,0.00817259680479765,-0.008986216969788074,-0.0064139640890061855,-0.003121511312201619,-0.00447350786998868,-8.131569484248757E-4,0.007112143095582724,3.7307738239178434E-5,-8.689224487170577E-4,-8.719110628589988E-4,-0.0029384815134108067,0.009086532518267632,8.065461879596114E-4,-0.007591769564896822,0.001451327814720571,0.0019468569662421942,-0.005518816877156496,0.003189217997714877,0.006166153121739626,0.004779232665896416,0.009582114405930042,-0.0011132103390991688,0.007675051689147949,-0.0035988695453852415,-0.0021582460030913353,-0.004536471329629421,0.00417030556127429,0.0025514233857393265,0.00975649431347847,0.009452414698898792,0.009983576834201813,-0.001128773088566959,0.009639174677431583,-0.0011007642606273293,0.0031756937969475985
Twitter,-5.0992367323488E-4,0.006001433357596397,0.007237902842462063,-0.0053529273718595505,-0.003722485387697816,-0.009975617751479149,0.0015026367036625743,-0.004608370829373598,-0.004949734080582857,-0.0049920473247766495,5.956768873147666E-4,-0.0032095855567604303,4.7461153008043766E-4,-0.00696055730804801,0.006039763800799847,0.004828667733818293,-0.00634118914604187,0.00938552524894476,9.676635381765664E-4,-0.008423701860010624,0.009693089872598648,0.006072551012039185,-0.008225099183619022,-6.739837117493153E-4,0.0011565637541934848,0.006036890670657158,0.003743202658370137,-0.008851686492562294,-0.008676895871758461,-0.0028548359405249357,0.007942617870867252,0.008540574461221695,-0.009738316759467125,0.007160727865993977,0.0012401961721479893,0.009825433604419231,0.004950116854161024,0.0071764979511499405,0.009406596422195435,-0.0033739388454705477,-0.006407950073480606,0.007310559973120689,0.002494691638275981,0.0021790110040456057,-0.006255079060792923,0.007857619784772396,-8.131497888825834E-4,0.004756737966090441,0.006381007377058268,-0.006907543167471886
Twitter,-0.029349835589528084,0.06342923641204834,-0.06933757662773132,-0.07571230828762054,-0.03592374920845032,0.06807675957679749,-0.011439602822065353,0.05406530573964119,0.029578417539596558,0.07289005070924759,-0.010119731537997723,0.07766369730234146,-0.05687154829502106,0.07130895555019379,0.08543837070465088,0.023108534514904022,-0.060713883489370346,0.011472289450466633,-0.07376427203416824,-0.015379898250102997,0.06200007349252701,-0.07299412786960602,-0.07483723759651184,-0.037557102739810944,0.023689836263656616,-0.0012737164506688714,-0.038433026522397995,0.00716038141399622,9.657089249230921E-4,-0.04193791002035141,-0.02659953199326992,-0.0915355235338211,-0.013171886093914509,-0.06966721266508102,0.06527671217918396,0.04216494783759117,0.035376377403736115,0.041408780962228775,0.03142194822430611,-0.06696100533008575,0.04943770915269852,-0.06725607067346573,0.08491182327270508,-0.0010336741106584668,0.08356248587369919,0.029019631445407867,0.08307281881570816,0.05952269211411476,0.06897955387830734,-0.07066310197114944
Twitter,-0.006547353230416775,-0.007423849776387215,0.002681474667042494,0.002085063373669982,-0.0037581874057650566,0.0033767796121537685,-0.0034920352045446634,-0.001324207754805684,-0.007953982800245285,-1.687169133219868E-4,-0.007072343956679106,-0.005190842319279909,0.009336745366454124,0.0027459156699478626,0.0032338201999664307,0.0028651487082242966,-0.006119317375123501,-4.8748194240033627E-4,-0.004120152443647385,-0.004684934392571449,-0.0046393778175115585,-0.004556982312351465,8.000266388989985E-4,0.006545168347656727,-0.008699999190866947,0.006556503940373659,-8.345615933649242E-4,0.00994234811514616,-0.004232381004840136,-0.006980700418353081,0.004695557523518801,-0.009452730417251587,-0.006446510553359985,-0.003064473858103156,-0.006057179067283869,-0.007184878457337618,0.008853881619870663,-0.004049935378134251,-0.0018158978782594204,-0.0028785306494683027,0.0010770129738375545,-0.0016423433553427458,0.007566708140075207,-0.007251807488501072,0.0014973569195717573,-0.008067266084253788,2.718448522500694E-4,0.0033809375017881393,0.004893466364592314,0.00788755901157856
Twitter,0.005900081247091293,0.00415078504011035,0.004414175637066364,-0.009550032205879688,-0.004625529050827026,0.004958708304911852,0.0053623272106051445,0.003546391613781452,-0.0012908839853480458,0.007709397003054619,0.00932021252810955,-0.0019744604360312223,0.009341822937130928,0.0037188041023910046,3.1516910530626774E-4,-0.004001872148364782,2.385234838584438E-4,0.0024070870131254196,-0.004612258169800043,0.009304258972406387,0.0016771280206739902,0.006961547303944826,0.008902052417397499,0.005636387970298529,0.00886798370629549,-0.002856454811990261,-0.0069801295176148415,-0.0029214138630777597,0.004142620600759983,0.007391772232949734,0.002123007783666253,1.408696116413921E-4,-3.085011267103255E-4,-0.0032970798201858997,0.0028134225867688656,-0.0020755219738930464,-0.0030691183637827635,0.006861797533929348,-9.366816375404596E-4,0.005627817939966917,3.9893388020573184E-5,-0.008616098202764988,-0.006871336605399847,-0.004912570118904114,0.007425104267895222,-0.0015838545514270663,-0.0056982384994626045,0.0030670417472720146,-0.006493529304862022,-0.00983281061053276
Twitter,0.0010586571879684925,-0.0038228260818868876,0.007248332723975182,-0.003665170632302761,-3.608411643654108E-4,-0.0016562407836318016,-0.00202880147844553,-0.009379696100950241,0.0062275780364871025,-0.005838644690811634,0.007803061045706272,0.0055192457512021065,0.0077812145464122295,0.007829657755792141,-0.007448481395840645,-0.0030394934583455324,-0.0012231201399117708,0.0020983731374144554,-0.0018688917625695467,-0.003970177844166756,-7.988333818502724E-4,0.0036368644796311855,0.006131276022642851,0.0037806821055710316,-6.005633040331304E-4,-0.009213978424668312,-0.0018925166223198175,-0.0012781631667166948,0.004552449099719524,0.006039173807948828,0.006960927043110132,0.004358046222478151,-0.008061888627707958,9.156084270216525E-4,-0.007097003515809774,0.006362572778016329,2.797698834910989E-4,-0.0012085395865142345,0.0026139055844396353,-0.008054284378886223,0.008412032388150692,-0.007010558620095253,0.006549496669322252,-0.004208831582218409,-0.008287386037409306,0.004496208392083645,0.0034922801423817873,0.0037738848477602005,0.007222291082143784,-0.003344019642099738
Twitter,-0.004860659129917622,7.698631379753351E-4,-0.00802621990442276,0.005506365094333887,0.004361872561275959,-0.006423525046557188,-0.0012971300166100264,-0.0027072036173194647,-0.007521890569478273,-0.008195965550839901,0.006337914615869522,-0.006175643298774958,-0.009765430353581905,0.007523459382355213,-0.0019029462710022926,0.003719031810760498,-0.005606422200798988,-0.0071942005306482315,-0.005159041844308376,-0.007290103007107973,-0.006045327987521887,0.008080584928393364,-0.007563117891550064,-0.0010536580812186003,0.005905179772526026,-0.004919876344501972,-0.004487952683120966,-3.0407251324504614E-4,-0.007789891213178635,-0.007312915287911892,0.0010408222442492843,0.002706316765397787,-0.008034762926399708,-0.00922675896435976,-0.006288581062108278,-0.0046898601576685905,-0.0017311007250100374,0.0041155884973704815,0.008245770819485188,0.007389558479189873,0.007059074472635984,0.006890487857162952,0.009345336817204952,-0.007013936061412096,0.008463634178042412,-0.004741954151540995,-0.005928239785134792,-0.007183558773249388,-0.0011914991773664951,-0.0016082489164546132
Twitter,-0.003042942378669977,0.001257599564269185,0.00801735557615757,-0.0016552889719605446,-0.009689279831945896,0.0017580199055373669,0.008709229528903961,-0.007177611812949181,-0.0017144131707027555,-0.005542265251278877,-0.004113676957786083,0.0036518871784210205,0.00267940410412848,0.003399109933525324,0.006100867874920368,0.005328614730387926,0.0013095438480377197,-0.004675916861742735,0.007543300278484821,0.0019825242925435305,0.0058138989843428135,-0.0018909353530034423,-0.004661094397306442,0.0022454606369137764,-0.0077912588603794575,0.002083980944007635,0.0060592032968997955,0.008592077530920506,-1.1211872333660722E-4,0.004272798076272011,-0.007396032102406025,0.003904837416484952,-0.00975809432566166,-8.956915116868913E-4,-0.004349160939455032,-0.0018002992728725076,-0.006208091974258423,-0.003993452992290258,0.0072075845673680305,-0.0012688667047768831,0.004427781328558922,-0.0036958521232008934,0.00749968271702528,0.006030687130987644,-0.00909039843827486,-0.009958866983652115,0.0052607678808271885,-0.00862808246165514,0.002290676813572645,-0.005368737503886223
Twitter,-0.0021067673806101084,0.009578188881278038,-0.009761061519384384,-0.00250150915235281,0.006173647474497557,-0.007821307517588139,0.005000527948141098,-0.007919368334114552,0.006168265361338854,-0.00592432264238596,-0.0032702581956982613,9.320580866187811E-4,-0.0049485089257359505,0.008090171031653881,0.0014914858620613813,-0.0047315978445112705,0.0014039278030395508,-0.00640948535874486,0.0040823910385370255,-0.0056710634380578995,-0.003949976526200771,0.0012649809941649437,-0.003162713721394539,0.0027409065514802933,-0.0038954513147473335,5.085968878120184E-4,5.713272257708013E-4,0.007306077517569065,-0.009862377308309078,-0.0042833066545426846,0.005518066696822643,-0.0019628810696303844,0.004690663889050484,-0.005883016623556614,0.005802091211080551,-0.00948326475918293,0.0017335772281512618,0.0016779624857008457,-0.006511166226118803,0.004356719087809324,-0.0021852219942957163,0.004407868254929781,0.0061797890812158585,0.0010065650567412376,0.00154673692304641,0.0012997877784073353,0.004140033852308989,2.374827890889719E-4,0.0034535336308181286,-0.005567646119743586
Twitter,-0.005783531814813614,-0.003607342950999737,0.009742285124957561,0.0010555065236985683,0.00890890508890152,-0.0046496023423969746,-0.00771751394495368,-7.687538745813072E-4,0.004838764667510986,0.0023028647992759943,-0.0036243456415832043,-0.007702948991209269,-0.009706285782158375,-0.0036701387725770473,0.006008107680827379,-0.003245618427172303,-0.004304942674934864,0.003956890199333429,0.006552640348672867,-0.003483918961137533,0.008536912500858307,0.005040482152253389,-0.008765368722379208,0.009873156435787678,-0.0076327514834702015,-0.007823514752089977,-0.001929786754772067,0.0021857440005987883,0.009315877221524715,-0.0049009197391569614,-0.007114411797374487,0.001112525467760861,-0.0052433740347623825,-0.007090377621352673,0.004254882223904133,0.004683432634919882,-0.004621726926416159,-0.004485801327973604,-0.0059893191792070866,0.0031855094712227583,0.003821635153144598,0.0046090055257081985,0.003925131633877754,-0.009791351854801178,0.004961294122040272,0.008009606972336769,0.006950632203370333,-0.009983491152524948,-0.0073026628233492374,0.0062513528391718864
Twitter,-0.002664888510480523,0.0010439824545755982,0.007118883077055216,0.008534426800906658,1.1818766506621614E-4,-0.004977979697287083,-0.007866870611906052,0.009728792123496532,-0.0025851577520370483,0.0017536425730213523,-0.004110943526029587,-0.002507010707631707,0.0061219967901706696,-0.005839100573211908,0.0076273963786661625,0.0052569652907550335,4.0631770389154553E-4,0.00902008917182684,0.0034126604441553354,-0.008297822438180447,0.00994290690869093,0.002935178345069289,0.008188223466277122,0.009436818771064281,0.0026992547791451216,-0.00939152855426073,0.0013821101747453213,-0.006190966349095106,-0.009083629585802555,0.00393117917701602,-0.007133259903639555,-0.004167876206338406,-0.007119486108422279,2.6281713508069515E-4,0.0018347417935729027,-8.612293167971075E-4,-0.0018178612226620317,0.0019203114788979292,0.001347593031823635,-0.0038597709499299526,-0.001899076160043478,0.003668285673484206,-0.004547853954136372,0.0022617769427597523,8.554208325222135E-4,0.005777205340564251,-0.0063023739494383335,-0.00432576471939683,0.009825062938034534,-0.004853434395045042
Twitter,0.006403924431651831,0.0015418147668242455,-0.0064363800920546055,-0.0031835490372031927,0.0030918943230062723,6.062889005988836E-4,0.002623224165290594,-0.0056532155722379684,-0.0076997713185846806,7.556998752988875E-4,0.0068575190380215645,0.0014217233983799815,-0.005061849486082792,0.008840593509376049,0.009716694243252277,0.009174436330795288,-0.00749951833859086,-0.0027307027485221624,0.0071329595521092415,9.56819043494761E-4,-0.001777319936081767,-0.004305633250623941,-0.005759847816079855,0.005710329860448837,0.007154793944209814,0.003670033300295472,-0.0062607647851109505,-0.0060738385654985905,-0.006306719966232777,-0.008334587328135967,0.0091864550486207,0.004758857656270266,0.007861197926104069,-4.538249922916293E-4,-0.009802557528018951,-0.009846856817603111,-0.005887174047529697,-7.435232400894165E-4,-0.0022386806085705757,1.4641403686255217E-4,0.0021639717742800713,3.9574026595801115E-4,0.0033353613689541817,-0.0021301829256117344,0.006042220629751682,-0.007085040677338839,-0.004873179364949465,0.006692787632346153,-0.006204241421073675,-0.005775474477559328
Twitter,0.0018628144171088934,-0.008250934071838856,0.0027781438548117876,0.004451309330761433,0.006360452156513929,0.008725392632186413,0.007347459904849529,0.009218650870025158,0.008852224797010422,0.004140790551900864,-1.2201905337860808E-4,-0.0019017404410988092,0.006996356416493654,0.007260739803314209,-0.00314497877843678,-0.0060543762519955635,-2.0779669284820557E-4,0.003108183154836297,-0.001203864230774343,-0.009886412881314754,-0.007794220000505447,-0.0070195794105529785,-0.00860692374408245,0.005811792798340321,-0.004955165553838015,-0.0017962467391043901,3.050696977879852E-4,0.004531769547611475,-0.0065463208593428135,-0.006059703417122364,-0.007284579332917929,-0.007396569475531578,-0.008997295051813126,0.005715100560337305,-0.0047665489837527275,0.0010844981297850609,0.005827127490192652,0.006018287036567926,-0.0067561473697423935,0.008619070053100586,-0.008529323153197765,-0.005438710562884808,-0.00877557322382927,0.007401938550174236,0.009355203248560429,0.007560000289231539,3.4817458072211593E-5,-0.008443969301879406,-0.005869844928383827,0.008188026025891304
Twitter,-0.004560230299830437,-0.008610519580543041,-0.0065521360374987125,-0.0030145877972245216,-0.007155956234782934,0.009712189435958862,0.0012280249502509832,0.006419322453439236,0.004411441273987293,0.007324567995965481,-0.006484655197709799,0.0021481525618582964,-0.0016124689718708396,-0.0014972459757700562,-0.0053534843027591705,0.003231185721233487,-0.00785825029015541,0.006563693284988403,-7.491082069464028E-4,0.0096884835511446,0.006249525584280491,0.004425534047186375,-0.004563608206808567,-0.007846591994166374,0.0011268925154581666,-0.003980431705713272,-0.008439203724265099,-0.0035145068541169167,-0.003813742892816663,-0.005697065498679876,0.005904433783143759,-0.0047934516333043575,-0.002483001444488764,-0.009030111134052277,-0.009331651963293552,0.008373061195015907,-0.008893027901649475,-0.007033979520201683,0.004274406470358372,-0.002166076796129346,-0.007982070557773113,0.0052567292004823685,5.59755542781204E-4,0.0031450153328478336,-0.007176818326115608,-0.004418385215103626,-0.0096555445343256,0.008308514021337032,-0.004342647269368172,0.0031484460923820734
Twitter,0.0030449663754552603,5.256366566754878E-4,-0.00892904307693243,-0.0012613815488293767,-0.0023538696113973856,-0.00603487528860569,0.005137976258993149,0.0024796866346150637,0.0031194293405860662,6.44872197881341E-4,0.007841801270842552,-0.005180906038731337,-0.005891069304198027,-0.009572574868798256,0.0059392331168055534,-0.00814483780413866,0.005517416168004274,0.0032499718945473433,-0.002514283172786236,-0.009977942332625389,0.002139617223292589,0.004981815814971924,-0.008245664648711681,-0.007131738588213921,0.004736000206321478,0.009603607468307018,-0.004677832126617432,0.0014091181801632047,0.005905624479055405,0.0074392082169651985,0.0021646523382514715,0.001190238050185144,-0.007889497093856335,-0.003381642745807767,-0.006340662017464638,0.009742623195052147,0.0017065751599147916,0.00392954470589757,6.918966537341475E-4,-0.007806914858520031,-0.001766665605828166,0.00948623288422823,-0.0011585087049752474,-0.007847689092159271,0.006014340091496706,-0.0026571445632725954,-0.0052541885524988174,-8.626497001387179E-4,0.002904571359977126,0.005755283869802952
Twitter,6.759226089343429E-4,-0.006779530085623264,0.004572938662022352,-6.758642266504467E-4,0.005011018365621567,-0.004630441777408123,-0.0025589275173842907,0.004232898820191622,-2.453029082971625E-5,0.007391469553112984,-0.005010415334254503,0.003180693369358778,-0.006568387150764465,-0.006020531058311462,-0.008289879187941551,-0.006124740932136774,0.008906782604753971,0.00417329091578722,-4.12262073950842E-4,2.5893806014209986E-4,5.124950548633933E-4,-0.002251377096399665,0.007878200151026249,0.0017255592392757535,-0.008479789830744267,-0.005982141941785812,-0.006126216612756252,-2.630305243656039E-4,0.00525048840790987,-0.002371758222579956,-0.005107902456074953,-0.004822622053325176,-0.00975659117102623,0.001493613701313734,-0.00893241073936224,-0.003513335483148694,-0.001981706591323018,-0.002117062220349908,0.008178884163498878,-0.0077262683771550655,-0.00800500251352787,-0.00463327718898654,0.0022364365868270397,0.005020753014832735,0.0020764803048223257,0.0037592542357742786,-0.0012686419067904353,-0.0014567786129191518,-0.004647637717425823,0.0021855842787772417
Twitter,0.007307731080800295,1.83991200174205E-4,-0.005555745214223862,-0.009783657267689705,-0.006800004281103611,-0.0024077927228063345,-0.008288588374853134,0.006307506468147039,-0.00495053781196475,-0.006742028519511223,0.0033789360895752907,-0.005535091273486614,-0.0016143614193424582,-0.008687732741236687,0.009638146497309208,0.0044394792057573795,0.0012627232354134321,-0.0038101733662188053,0.006421922240406275,0.0041939876973629,-0.0019532227888703346,-0.009985797107219696,-0.006606025621294975,-0.005987753160297871,-0.00939182098954916,-0.002184326760470867,0.0014648151118308306,-0.009120847098529339,0.008419936522841454,-0.009505948051810265,-0.008173600770533085,-0.0053815580904483795,0.004307287745177746,0.0012135851429775357,0.00888782273977995,-0.002171614672988653,-0.006990212015807629,0.0038278198335319757,0.0038225697353482246,0.0027521192096173763,0.009236914105713367,-0.006437287200242281,0.006551319267600775,0.006503726355731487,-0.009234982542693615,-0.004935994278639555,0.0015085351187735796,-0.002484881319105625,0.0012318658409640193,0.007922069169580936
Twitter,0.0025028311647474766,-0.0031210975721478462,0.002962412778288126,0.009900892153382301,-8.906876901164651E-4,-0.005042748525738716,0.007278667762875557,-0.0043494850397109985,-0.002859212690964341,-0.004843204747885466,0.009842288680374622,-0.00813527125865221,-0.004957115277647972,0.0058912611566483974,0.008330685086548328,-0.005398259032517672,0.007332159206271172,4.5751212746836245E-4,-0.008176516741514206,-0.0030670231208205223,-0.0035936618223786354,-0.005653125233948231,0.002647765912115574,-0.0032571328338235617,0.005100352689623833,0.004967936314642429,-9.805703302845359E-4,0.006928348448127508,-0.0017904257401823997,0.009060888551175594,-0.002557119820266962,0.005560321733355522,-0.005998153705149889,-0.0034043460618704557,-0.0025239770766347647,-1.5766144497320056E-4,-0.007674882188439369,-5.225592758506536E-4,0.0063545419834554195,-0.0030941294971853495,-0.008344046771526337,0.0034806705079972744,0.009006112813949585,-0.009349871426820755,-0.008487340062856674,-9.674871107563376E-4,0.0028774261008948088,0.009968838654458523,-0.0050906031392514706,0.0019863450434058905
Twitter,0.004585272166877985,-0.0035887586418539286,-0.006991841830313206,-0.008947369642555714,0.009897874668240547,0.004398326855152845,0.006070007104426622,0.0030690454877913,-0.001462598447687924,0.0053476919420063496,-0.007726154290139675,-0.004128410015255213,0.00530276307836175,0.009595396928489208,0.0044165803119540215,-7.074552704580128E-4,0.003007650375366211,-0.008810244500637054,-0.006156781688332558,0.0087178535759449,-0.007946763187646866,2.932774950750172E-4,4.5048713218420744E-4,-0.009412692859768867,0.008112167939543724,0.009795905090868473,-0.0037696922663599253,0.002026902511715889,-0.005825254134833813,-0.006796223111450672,-0.009111680090427399,-0.0011226123897358775,0.009792529046535492,0.008340069092810154,-0.004809102974832058,-0.0035194193478673697,0.008330863900482655,0.009693589992821217,0.005460919346660376,-0.008849207311868668,-0.0031815427355468273,-0.0036534322425723076,-0.0030340063385665417,0.005502360872924328,-0.0015251529403030872,0.0013306713663041592,0.007375643122941256,-0.0044351075775921345,0.002093409188091755,0.008258254267275333
Twitter,0.007792096119374037,0.005090006627142429,-0.008869722485542297,-0.0020373971201479435,3.418564665480517E-5,-0.00757583137601614,-0.007519444916397333,0.007027443498373032,-0.00804863590747118,0.009675146080553532,-0.004755122121423483,0.009891334921121597,0.004923196043819189,-0.0056154727935791016,-0.006614204030483961,-0.005061515606939793,-0.005028500687330961,-0.008050587959587574,-0.0011392205487936735,0.00498960493132472,0.009116205386817455,0.008648809976875782,-0.0062569365836679935,-0.007009331602603197,-1.1844873370137066E-4,0.008823690004646778,0.005516194272786379,-0.00911703146994114,0.004345389548689127,0.0014764356892555952,0.006312066223472357,0.00514101842418313,-0.007020758464932442,-0.006930897012352943,-0.004557522013783455,-0.004780575633049011,0.009479101747274399,0.0067613087594509125,0.009698365814983845,-0.004813828505575657,0.005181051325052977,-4.4799924944527447E-4,0.004956567194312811,0.0032225297763943672,0.0026826011016964912,0.0019413209520280361,4.752898239530623E-4,0.009199949912726879,-0.007801172789186239,0.0022826946806162596
Twitter,-0.008014004677534103,-0.003779646707698703,-0.0010847008088603616,3.394305822439492E-4,8.7632896611467E-4,0.005673487205058336,0.009349646978080273,-0.007453031372278929,0.005779863800853491,-0.007238270714879036,-6.188851548358798E-4,-0.003249683417379856,0.001945981988683343,-0.006309768185019493,-0.006677843164652586,-0.008626114577054977,-0.006974674295634031,-0.009897153824567795,-0.0033152454998344183,0.008899293839931488,-0.0011974030639976263,0.0024008930195122957,-0.005654114298522472,-0.001416236744262278,0.009509950876235962,0.008129864931106567,0.008106081746518612,-0.0031739079859107733,0.007390172686427832,0.006109656300395727,-0.003878621384501457,-0.00422243494540453,-0.0035704595502465963,0.005582353100180626,0.0010230898624286056,-0.0010007130913436413,0.009653877466917038,0.005644205957651138,-0.009701615199446678,5.1794049795717E-4,-0.004309810232371092,-0.004826751537621021,0.007153295446187258,0.009012737311422825,-0.002522011287510395,-0.0017233127728104591,-0.0033431167248636484,0.003244762308895588,-0.007619683165103197,-0.007027108687907457
Twitter,0.005617010407149792,0.0017235135892406106,0.002925235079601407,-0.008646246045827866,0.00414320221170783,-4.306584596633911E-4,0.004694208037108183,0.005393586121499538,-0.009043263271450996,-8.650743984617293E-4,-0.009114878252148628,0.007200362626463175,0.00680386321619153,0.0027792477048933506,0.006769789382815361,-2.739560732152313E-4,-0.0038311404641717672,-0.0040670121088624,-0.005839277524501085,0.0064410436898469925,0.007666801102459431,-0.004704886581748724,-0.008957406505942345,-1.2706517736660317E-5,0.008296011947095394,-0.00897501315921545,-1.1976360838161781E-5,-0.002057806821539998,0.0021258569322526455,0.0037925411015748978,0.00491472939029336,-0.00537849823012948,0.005268907640129328,0.006901754066348076,-0.00353837083093822,-0.002476267283782363,-0.0014385372633114457,0.009034249931573868,0.006135890260338783,-0.007315181661397219,-0.0038621907588094473,-0.006097910460084677,0.0018042492447420955,0.004933183081448078,-0.007127091754227877,0.009075441397726536,0.009645852260291576,-0.0017622929299250245,0.006103334482759237,0.0014472174225375056
Twitter,0.004196714144200087,-3.2254160032607615E-4,-0.005841139703989029,0.009141160175204277,0.009300784207880497,0.0026924251578748226,0.00359071372076869,-0.0010052520083263516,0.006436098832637072,-0.007840743288397789,-0.007823719643056393,0.008357327431440353,0.001822477555833757,-0.003622115356847644,-0.0036019403487443924,-0.007380913943052292,0.0019993698224425316,-0.00481413584202528,-0.008907563984394073,0.006782419513911009,0.0027687610127031803,0.005662030074745417,0.0016581416130065918,0.0016342567978426814,-0.009162277914583683,-0.005127204582095146,0.004530566744506359,-0.005168051924556494,-0.0032909249421209097,0.0045307707041502,-0.003534026211127639,0.006416835822165012,-8.495163638144732E-4,-0.008657684549689293,-0.004930082708597183,0.0010365427006036043,-0.006392729468643665,0.009309381246566772,-0.008684435859322548,0.0061193048022687435,0.006437971722334623,0.005033510737121105,0.002993705216795206,0.009075424633920193,0.0020940399263054132,0.009785209782421589,1.662492832110729E-5,-0.0079279700294137,0.00854904018342495,0.00568508030846715
Twitter,-0.0012594818836078048,0.0032990169711411,-0.009071793407201767,-0.0033101970329880714,0.003265277249738574,-0.008926229551434517,0.005236676894128323,-0.0012431156355887651,0.005968538578599691,0.005800372455269098,-0.005759542807936668,0.007362574338912964,0.009834537282586098,0.002874399535357952,-0.003973096143454313,-0.0065417164005339146,-0.0028703147545456886,0.00987398624420166,0.005284962709993124,0.0046849679201841354,-0.0027752977330237627,0.001547731109894812,0.005887321196496487,0.008067186921834946,-0.006322014145553112,-0.0029722547624260187,0.009981881827116013,0.008205524645745754,0.0012575531145557761,0.0029420615173876286,0.0014865923440083861,-0.008774204179644585,0.009881836362183094,-0.0028314513619989157,0.0012585436925292015,-0.005448999349027872,-0.007796391379088163,1.812231494113803E-4,-0.005817138124257326,0.0046910070814192295,0.008888832293450832,0.001282690791413188,-1.1019050725735724E-4,0.00300839776173234,-0.007808187510818243,0.001952146296389401,0.0016740619903430343,-0.003845602972432971,0.009433576837182045,-9.82658239081502E-4
Twitter,-0.00866265781223774,-0.003673932049423456,0.005440595094114542,0.003200164996087551,0.007424808572977781,-0.006865528877824545,0.007047345861792564,0.008258924819529057,0.009562845341861248,0.008310136385262012,-0.0047316779382526875,0.007615050300955772,-0.008754824288189411,0.005351977422833443,-3.375709056854248E-4,-0.006748402025550604,-0.001297086477279663,0.004253176506608725,-0.008390974253416061,-0.001417031860910356,-0.0018894505919888616,0.008972720243036747,-3.875231777783483E-4,-0.0010891014244407415,-9.663397213444114E-4,-0.007526889909058809,0.009652357548475266,-1.947700911841821E-5,-0.009334874339401722,5.260849138721824E-4,-0.005793431308120489,0.006512020714581013,-0.005236160941421986,-0.0034846877679228783,0.009026262909173965,0.0067117237485945225,0.008171255700290203,-4.173529159743339E-4,0.005321679171174765,0.0012717711506411433,0.005081096664071083,-7.447093958035111E-4,-0.001373359002172947,-8.202898316085339E-4,0.0015226220712065697,4.26911108661443E-4,0.0036274921149015427,-0.001550405053421855,0.006394743919372559,0.008173516020178795
Twitter,-0.004795419052243233,0.00446667056530714,0.0055529773235321045,-0.0010015785228461027,0.002439976902678609,0.0037756108213216066,8.448779699392617E-4,0.0038955151103436947,-0.002480615396052599,-0.007081220857799053,-8.337426115758717E-4,0.0039415727369487286,-0.006219415459781885,-0.006827135104686022,-0.004838215187191963,-0.003837869269773364,0.007145757786929607,0.005149477627128363,0.005484113469719887,0.009574133902788162,0.009956637397408485,-0.005644034128636122,-0.0065395887941122055,-0.008546639233827591,-0.0019730115309357643,-4.306399787310511E-4,-0.006718621123582125,-0.0034923614002764225,-0.007408106699585915,-0.008569618687033653,0.0044503891840577126,0.006747857201844454,-0.007026749663054943,0.0013979232171550393,0.0022879731841385365,-0.0020171923097223043,-2.5153160095214844E-4,0.004000612534582615,-0.004334424622356892,0.00953814946115017,0.00420782808214426,-0.007846377789974213,1.315021509071812E-4,-0.005100103560835123,0.004056290257722139,0.0033043932635337114,-0.00799588579684496,0.007116584572941065,-0.002128089079633355,-0.006703516468405724
Twitter,0.009751110337674618,-1.7737745656631887E-4,-6.696003838442266E-4,0.0076650893315672874,0.0024570750538259745,0.009409185498952866,4.0591717697679996E-4,0.0097874840721488,-0.006843041628599167,0.004974009934812784,0.004249319899827242,-0.0012852692743763328,-0.007175135426223278,0.005945337936282158,-0.004161910619586706,0.007045054342597723,0.005132536869496107,0.006119906902313232,0.001636081957258284,0.0024200440384447575,-0.004630218259990215,-0.009167536161839962,-0.007268419489264488,-0.008862366899847984,9.412086219526827E-4,-0.002049349481239915,0.008876090869307518,0.003290010616183281,0.00218636984936893,0.00827060081064701,-0.003367801196873188,0.0037865734193474054,-0.006704299245029688,-0.006820156704634428,-0.0029969047755002975,0.004687986336648464,-0.002897698199376464,0.006016050465404987,-0.0010039758635684848,-0.007906726561486721,-0.0055289794690907,-0.003508712165057659,-0.004670619498938322,-0.008622285909950733,-0.002016887068748474,0.002203125972300768,-0.0010222983546555042,0.005850286688655615,-0.006741972174495459,-0.0019409942906349897
Twitter,-0.0032888990826904774,0.005081117153167725,-0.004867848940193653,-0.006377199199050665,-0.002633920405060053,-9.761941619217396E-4,0.009637139737606049,0.009649686515331268,0.008581877686083317,-0.007687391247600317,-0.0068681263364851475,-4.917478654533625E-4,0.0051239849999547005,-8.350658463314176E-4,0.0021627270616590977,0.007897261530160904,0.005148930475115776,0.005900714546442032,-5.194467375986278E-4,-0.005070853047072887,0.00877543818205595,0.005119274836033583,-0.003514162264764309,-0.004022291395813227,0.004158208146691322,0.003314485540613532,0.002317153150215745,0.0017409158172085881,-0.0034172171726822853,-0.004216216038912535,-0.005750622134655714,-0.008842199109494686,-0.002299262909218669,-0.0028718148823827505,0.0025424016639590263,-0.009382949210703373,5.7780744100455195E-5,-3.2127081067301333E-4,-0.0017618126003071666,6.955957505851984E-4,-0.0047740512527525425,0.004861163906753063,0.008608070202171803,-0.0033784867264330387,-0.0025157153140753508,-0.0018611305858939886,-0.0026398717891424894,-0.005982785020023584,-0.009726849384605885,-0.0038153643254190683
Twitter,-0.004230929538607597,0.004016222897917032,0.0035602152347564697,0.007181461900472641,-1.7176271285279654E-5,-0.006303063593804836,-0.00786956213414669,-0.007288532331585884,0.002413991605862975,-0.005870797671377659,0.007395265158265829,-0.005633815657347441,0.005502317100763321,-0.007196593098342419,0.005244579166173935,-7.91191472671926E-4,-0.00689892191439867,0.005763896740972996,-0.005992562975734472,-0.003168066730722785,0.00812496803700924,0.005471361801028252,-1.0594546620268375E-4,0.0051205456256866455,0.004581245128065348,0.0018887579208239913,-0.005431669764220715,0.006641411688178778,-0.007221341598778963,-7.756513077765703E-4,0.0014635706320405006,-0.0037609892897307873,-0.009687405079603195,-0.008543149568140507,5.925595760345459E-4,0.004353264346718788,-0.006772661581635475,0.009451724588871002,7.151246245484799E-5,-0.0016008776146918535,0.0037413800600916147,-0.009203042834997177,-0.003845236264169216,0.007325050886720419,0.001700031803920865,-0.005888114683330059,0.002071883762255311,-6.32873794529587E-4,-2.909457543864846E-4,0.0026747167576104403
Twitter,-0.0025439702440053225,-0.001422234228812158,0.0021145297214388847,0.0039701745845377445,0.0027891588397324085,-0.001466063316911459,0.0020743131171911955,0.0035617577377706766,-0.006306177470833063,0.0018464993918314576,0.007626922335475683,0.007658571004867554,-0.0031048988457769156,-0.006560742389410734,-0.004836792126297951,-7.157480577006936E-4,-0.005328929517418146,0.005702944938093424,0.009282649494707584,0.002667725086212158,0.005136585328727961,-0.008673380129039288,0.004486534744501114,-9.001928847283125E-4,0.009028893895447254,-0.0013494479935616255,-0.001044301432557404,-0.005854334682226181,0.001249624532647431,-0.007708283606916666,-3.2087982981465757E-4,0.009106185287237167,-0.005169651471078396,8.135712123475969E-4,0.008370598778128624,0.0030655337031930685,0.004998388234525919,-0.00855767261236906,-0.0019973046146333218,-0.005660736933350563,0.002930288203060627,-0.00639303820207715,-0.006149878725409508,-0.008530702441930771,-0.007651261053979397,0.007863644510507584,-0.005404731258749962,8.576083346270025E-4,-0.007111229933798313,0.002020213520154357
Twitter,3.191351788700558E-5,0.006688656751066446,-0.005792741663753986,-0.00302155502140522,0.006818030029535294,0.006658729165792465,-0.006346919573843479,-5.327981780283153E-4,0.005195189733058214,-0.005319385323673487,-0.005718710366636515,0.006692764814943075,-0.0031423813197761774,0.003214877797290683,-0.007663445081561804,-0.007760465610772371,0.00878962967544794,-0.007898866198956966,-0.001072180224582553,0.005391968414187431,0.005210988689213991,-0.007351041305810213,0.00499553419649601,-3.645360629889183E-5,-0.008058509789407253,-0.005527132656425238,0.0018482374725863338,0.0075810374692082405,-0.001566207385621965,0.005064098630100489,0.001247683772817254,-0.0011472171172499657,0.002961628371849656,-0.00713634118437767,0.008732208050787449,-0.0046479119919240475,0.0014422667445614934,-0.006714770570397377,-0.009411155246198177,-0.005835373420268297,0.008800114504992962,-9.65725164860487E-4,0.0021428000181913376,-0.002486392855644226,0.008297303691506386,-0.0021306879352778196,0.002122322330251336,-0.003534480929374695,-0.00634533166885376,-3.379344998393208E-4
